{"learner":{"attributes":{"scikit_learn":"{\"_estimator_type\": \"classifier\"}"},"feature_names":["hour","is_ny_session","distance_to_ema50","trend_ema200","volatility_shock"],"feature_types":["int","int","float","int","float"],"gradient_booster":{"model":{"cats":{"enc":[],"feature_segments":[],"sorted_idx":[]},"gbtree_model_param":{"num_parallel_tree":"1","num_trees":"150"},"iteration_indptr":[0,1,2,3,4,5,6,7,8,9,10,11,12,13,14,15,16,17,18,19,20,21,22,23,24,25,26,27,28,29,30,31,32,33,34,35,36,37,38,39,40,41,42,43,44,45,46,47,48,49,50,51,52,53,54,55,56,57,58,59,60,61,62,63,64,65,66,67,68,69,70,71,72,73,74,75,76,77,78,79,80,81,82,83,84,85,86,87,88,89,90,91,92,93,94,95,96,97,98,99,100,101,102,103,104,105,106,107,108,109,110,111,112,113,114,115,116,117,118,119,120,121,122,123,124,125,126,127,128,129,130,131,132,133,134,135,136,137,138,139,140,141,142,143,144,145,146,147,148,149,150],"tree_info":[0,0,0,0,0,0,0,0,0,0,0,0,0,0,0,0,0,0,0,0,0,0,0,0,0,0,0,0,0,0,0,0,0,0,0,0,0,0,0,0,0,0,0,0,0,0,0,0,0,0,0,0,0,0,0,0,0,0,0,0,0,0,0,0,0,0,0,0,0,0,0,0,0,0,0,0,0,0,0,0,0,0,0,0,0,0,0,0,0,0,0,0,0,0,0,0,0,0,0,0,0,0,0,0,0,0,0,0,0,0,0,0,0,0,0,0,0,0,0,0,0,0,0,0,0,0,0,0,0,0,0,0,0,0,0,0,0,0,0,0,0,0,0,0,0,0,0,0,0,0],"trees":[{"base_weights":[1.502128E-2,-9.214658E-2,1.8520258E-1,-4.0341116E-2,-3.0072942E-1,5.0850135E-1,5.340963E-2,-8.7878056E-2,3.1146184E-1,1.1221543E-1,-4.4282183E-1,2.623477E-1,7.235764E-1,-2.1531571E-1,1.5578605E-1,-6.63909E-1,-5.80585E-2,9.4024473E-1,-7.018486E-2,-1.8484071E-1,2.551796E-2,-6.4638364E-1,-2.6439065E-1,4.038554E-1,-1.8975209E-1,2.2043116E-1,3.1287383E-2,-4.6130982E-1,4.439746E-1,5.219593E-1,-7.424829E-3,-5.7982123E-3,-2.8124169E-2,-4.8628237E-4,-1.3897644E-2,3.2907974E-2,6.244674E-3,-2.9186381E-2,5.3887763E-3,1.0851418E-2,-1.19038075E-2,3.601532E-3,-2.2787064E-2,1.8042754E-2,-1.35408295E-2,1.9220192E-2,1.6574579E-3,-1.5727585E-2,8.651162E-3,2.0804733E-2,-5.836873E-4,-1.4357268E-3,-1.8188946E-2,3.225259E-2,-2.5392264E-2,5.5487044E-3,2.8392637E-2,-9.525647E-3,5.0841565E-3],"categories":[],"categories_nodes":[],"categories_segments":[],"categories_sizes":[],"default_left":[0,0,0,0,0,0,0,0,0,0,0,0,0,0,0,0,0,0,0,0,0,0,0,0,0,0,0,0,0,0,0,0,0,0,0,0,0,0,0,0,0,0,0,0,0,0,0,0,0,0,0,0,0,0,0,0,0,0,0],"id":0,"left_children":[1,3,5,7,9,11,13,15,17,19,21,23,25,27,29,31,33,35,37,39,-1,41,43,45,47,49,-1,51,53,55,57,-1,-1,-1,-1,-1,-1,-1,-1,-1,-1,-1,-1,-1,-1,-1,-1,-1,-1,-1,-1,-1,-1,-1,-1,-1,-1,-1,-1],"loss_changes":[4.500806E0,1.6251421E0,4.0346003E0,2.0764935E0,1.809423E0,1.2654881E0,1.9273635E0,1.8289847E0,3.6189594E0,2.0162616E0,6.468849E-1,9.970638E-1,2.0358982E0,3.352806E0,3.0176263E0,4.9544096E-1,1.7639544E0,4.211154E-1,2.4622598E0,9.388504E-1,0E0,9.4347334E-1,2.4876578E0,8.9560485E-1,8.0851275E-1,7.787194E-1,0E0,8.477733E-1,5.6202884E0,2.0508924E0,2.0212905E0,0E0,0E0,0E0,0E0,0E0,0E0,0E0,0E0,0E0,0E0,0E0,0E0,0E0,0E0,0E0,0E0,0E0,0E0,0E0,0E0,0E0,0E0,0E0,0E0,0E0,0E0,0E0,0E0],"parents":[2147483647,0,0,1,1,2,2,3,3,4,4,5,5,6,6,7,7,8,8,9,9,10,10,11,11,12,12,13,13,14,14,15,15,16,16,17,17,18,18,19,19,21,21,22,22,23,23,24,24,25,25,27,27,28,28,29,29,30,30],"right_children":[2,4,6,8,10,12,14,16,18,20,22,24,26,28,30,32,34,36,38,40,-1,42,44,46,48,50,-1,52,54,56,58,-1,-1,-1,-1,-1,-1,-1,-1,-1,-1,-1,-1,-1,-1,-1,-1,-1,-1,-1,-1,-1,-1,-1,-1,-1,-1,-1,-1],"split_conditions":[6.7255193E-1,2.0067164E-1,1.2165102E0,-7.27136E-2,1E0,9E0,5E0,1E0,2.8839761E-2,5.2172846E-1,8E0,1.1161877E0,8.8721865E-1,2.4553072E0,1E1,-8.4133744E-1,-2.3940031E-1,1E0,3.4539852E-2,8E0,2.551796E-2,2.570656E-1,1.1E1,5E0,4E0,1E0,3.1287383E-2,1.4794515E0,4E0,8E0,1.7165065E0,-5.7982123E-3,-2.8124169E-2,-4.8628237E-4,-1.3897644E-2,3.2907974E-2,6.244674E-3,-2.9186381E-2,5.3887763E-3,1.0851418E-2,-1.19038075E-2,3.601532E-3,-2.2787064E-2,1.8042754E-2,-1.35408295E-2,1.9220192E-2,1.6574579E-3,-1.5727585E-2,8.651162E-3,2.0804733E-2,-5.836873E-4,-1.4357268E-3,-1.8188946E-2,3.225259E-2,-2.5392264E-2,5.5487044E-3,2.8392637E-2,-9.525647E-3,5.0841565E-3],"split_indices":[2,2,2,2,3,0,0,0,2,2,0,2,2,2,0,2,2,1,2,0,0,2,0,0,0,3,0,2,0,0,2,0,0,0,0,0,0,0,0,0,0,0,0,0,0,0,0,0,0,0,0,0,0,0,0,0,0,0,0],"split_type":[0,0,0,0,0,0,0,0,0,0,0,0,0,0,0,0,0,0,0,0,0,0,0,0,0,0,0,0,0,0,0,0,0,0,0,0,0,0,0,0,0,0,0,0,0,0,0,0,0,0,0,0,0,0,0,0,0,0,0],"sum_hessian":[2.4484647E2,1.5051901E2,9.4327446E1,1.21528534E2,2.8990488E1,2.648913E1,6.783832E1,1.07722824E2,1.3805706E1,7.4755435E0,2.1514946E1,1.3387228E1,1.3101902E1,1.8410326E1,4.942799E1,4.255435E0,1.0346739E2,4.6616845E0,9.144022E0,5.865489E0,1.6100543E0,8.824728E0,1.2690217E1,1.0277174E1,3.1100543E0,5.7432065E0,7.3586955E0,1.3626359E1,4.7839675E0,1.4561141E1,3.4866848E1,2.191576E0,2.0638587E0,9.472418E1,8.743206E0,3.4293478E0,1.232337E0,1.3546195E0,7.789402E0,1.441576E0,4.423913E0,1.1277174E0,7.697011E0,1.8600543E0,1.0830163E1,5.620924E0,4.65625E0,1.7730978E0,1.3369565E0,1.2961956E0,4.447011E0,3.883152E0,9.743206E0,3.3247283E0,1.4592391E0,8.917119E0,5.6440215E0,1.2376359E1,2.2490488E1],"tree_param":{"num_deleted":"0","num_feature":"5","num_nodes":"59","size_leaf_vector":"1"}},{"base_weights":[2.980318E-3,-2.4648027E-1,5.8770347E-1,-5.496026E-1,-1.468682E-1,2.1134259E-1,7.732407E-1,-9.179555E-1,-2.533529E-1,1.1558256E-1,-2.6683477E-1,-6.0572803E-1,3.391938E-1,3.270101E-1,9.409167E-1,-1.06062E0,1.8826935E-2,4.9848193E-1,-4.674459E-1,3.467471E-2,1.8767016E-2,-4.9488553E-1,-1.7187604E-1,-2.1892397E-2,-5.98107E-3,5.3023535E-1,-1.8333928E-1,5.354392E-2,4.0643025E-2,5.620297E-1,1.1559377E0,-5.989184E-3,-3.3495933E-2,-3.8966765E-3,3.2201216E-2,-2.2426091E-2,-2.6626026E-3,2.324059E-3,-2.221934E-2,1.2582395E-3,-2.3720345E-2,-1.3381917E-2,2.5633296E-3,2.9358223E-2,8.086469E-3,1.1851428E-2,-1.5691336E-2,1.8610511E-2,-8.446583E-3,4.6798037E-4,3.2049894E-2,4.0720556E-2,2.349869E-2],"categories":[],"categories_nodes":[],"categories_segments":[],"categories_sizes":[],"default_left":[0,0,0,0,0,0,0,0,0,0,0,0,0,0,0,0,0,0,0,0,0,0,0,0,0,0,0,0,0,0,0,0,0,0,0,0,0,0,0,0,0,0,0,0,0,0,0,0,0,0,0,0,0],"id":1,"left_children":[1,3,5,7,9,11,13,15,17,19,21,23,25,27,29,31,-1,33,35,-1,37,39,41,-1,-1,43,45,47,-1,49,51,-1,-1,-1,-1,-1,-1,-1,-1,-1,-1,-1,-1,-1,-1,-1,-1,-1,-1,-1,-1,-1,-1],"loss_changes":[3.5939445E1,5.1343355E0,4.9815865E0,4.3893356E0,4.166756E0,2.8907042E0,3.3567314E0,4.7443476E0,4.2338905E0,4.198745E0,1.8737578E0,4.7878504E-2,2.3800385E0,4.117794E0,2.2070942E0,6.102295E-1,0E0,2.3044114E0,2.0404663E0,0E0,1.8117521E0,4.171157E0,4.651949E0,0E0,0E0,1.7235718E0,1.5555562E0,2.6090615E0,0E0,4.0340776E0,5.448208E-1,0E0,0E0,0E0,0E0,0E0,0E0,0E0,0E0,0E0,0E0,0E0,0E0,0E0,0E0,0E0,0E0,0E0,0E0,0E0,0E0,0E0,0E0],"parents":[2147483647,0,0,1,1,2,2,3,3,4,4,5,5,6,6,7,7,8,8,9,9,10,10,11,11,12,12,13,13,14,14,15,15,17,17,18,18,20,20,21,21,22,22,25,25,26,26,27,27,29,29,30,30],"right_children":[2,4,6,8,10,12,14,16,18,20,22,24,26,28,30,32,-1,34,36,-1,38,40,42,-1,-1,44,46,48,-1,50,52,-1,-1,-1,-1,-1,-1,-1,-1,-1,-1,-1,-1,-1,-1,-1,-1,-1,-1,-1,-1,-1,-1],"split_conditions":[1.1469858E0,6.268876E-1,-4.4866273E-1,1E0,-6.5107626E-1,1.1829259E0,6E0,4.8906642E-1,-3.1767868E-2,6.677878E-1,7.5017506E-1,1.1599907E0,-8.8872117E-1,1.8749096E0,1.3343127E0,3.83534E-1,1.8826935E-2,-6.2164855E-1,1.3410876E0,3.467471E-2,1.1284301E0,9.373217E-1,6.7255193E-1,-2.1892397E-2,-5.98107E-3,1.3570502E0,1.1E1,2E0,4.0643025E-2,1.037192E0,1.7E1,-5.989184E-3,-3.3495933E-2,-3.8966765E-3,3.2201216E-2,-2.2426091E-2,-2.6626026E-3,2.324059E-3,-2.221934E-2,1.2582395E-3,-2.3720345E-2,-1.3381917E-2,2.5633296E-3,2.9358223E-2,8.086469E-3,1.1851428E-2,-1.5691336E-2,1.8610511E-2,-8.446583E-3,4.6798037E-4,3.2049894E-2,4.0720556E-2,2.349869E-2],"split_indices":[4,4,2,3,2,4,0,2,2,4,4,4,2,4,4,4,0,2,2,0,4,2,2,0,0,4,0,0,0,2,0,0,0,0,0,0,0,0,0,0,0,0,0,0,0,0,0,0,0,0,0,0,0],"split_type":[0,0,0,0,0,0,0,0,0,0,0,0,0,0,0,0,0,0,0,0,0,0,0,0,0,0,0,0,0,0,0,0,0,0,0,0,0,0,0,0,0,0,0,0,0,0,0,0,0,0,0,0,0],"sum_hessian":[2.4439467E2,1.7171452E2,7.2680145E1,4.135442E1,1.303601E2,2.4705109E1,4.797504E1,1.749847E1,2.3855947E1,4.0906193E1,8.945391E1,2.8369555E0,2.1868153E1,1.3909201E1,3.4065838E1,1.630695E1,1.1915219E0,4.9931297E0,1.8862818E1,2.5516295E0,3.8354565E1,2.505964E1,6.439427E1,1.5638578E0,1.2730978E0,1.6002714E1,5.865439E0,1.181702E1,2.0921803E0,1.3641709E1,2.042413E1,1.273097E0,1.5033852E1,2.7554348E0,2.2376947E0,1.028315E1,8.579668E0,3.6436085E1,1.9184774E0,9.207458E0,1.5852184E1,3.0820244E1,3.3574024E1,4.870922E0,1.1131791E1,2.110004E0,3.7554348E0,4.074263E0,7.7427573E0,7.0566E0,6.5851097E0,1.1542834E1,8.881294E0],"tree_param":{"num_deleted":"0","num_feature":"5","num_nodes":"53","size_leaf_vector":"1"}},{"base_weights":[1.1073843E-3,-2.2951148E-1,5.937279E-1,-3.8988426E-1,-1.957315E-2,3.4037653E-1,8.97196E-1,5.022318E-1,-4.1632196E-1,4.911298E-1,-1.23442106E-1,1.2168362E-1,6.1715335E-1,4.2941567E-2,7.514436E-1,2.0935507E-2,9.578811E-4,-3.161712E-2,-3.689275E-1,6.932033E-2,7.570006E-1,4.5594773E-1,-1.9151431E-1,-2.7999353E-1,3.8446853E-1,9.729296E-1,3.8749823E-1,-9.444414E-2,8.78982E-1,-1.5455569E-2,-8.163576E-3,1.642064E-2,-7.2369464E-3,3.124213E-2,1.092426E-2,2.3448164E-2,-5.6970515E-3,-1.1588196E-2,2.999845E-3,-1.0086528E-3,-2.2516541E-2,4.1953802E-2,1.8566586E-3,1.1786427E-2,4.0623687E-2,-4.5729075E-3,2.2364695E-2,-8.162451E-3,5.8058547E-3,1.6568778E-2,3.2054126E-2],"categories":[],"categories_nodes":[],"categories_segments":[],"categories_sizes":[],"default_left":[0,0,0,0,0,0,0,0,0,0,0,0,0,0,0,0,0,0,0,0,0,0,0,0,0,0,0,0,0,0,0,0,0,0,0,0,0,0,0,0,0,0,0,0,0,0,0,0,0,0,0],"id":2,"left_children":[1,3,5,7,9,11,13,15,17,19,21,23,25,-1,27,-1,-1,-1,29,31,33,35,37,39,41,43,45,47,49,-1,-1,-1,-1,-1,-1,-1,-1,-1,-1,-1,-1,-1,-1,-1,-1,-1,-1,-1,-1,-1,-1],"loss_changes":[3.336234E1,5.90889E0,4.9522076E0,2.5575523E0,4.1535077E0,2.2782998E0,1.2993336E0,2.8307605E-1,2.5499687E0,1.4324801E0,2.647621E0,2.5316875E0,1.0050979E0,0E0,2.8954744E0,0E0,0E0,0E0,1.1633263E0,1.0554414E0,5.169792E-1,1.6461256E0,3.3766487E0,1.0947675E0,4.59217E0,7.88867E-1,2.421866E0,2.7357277E-1,8.18264E-1,0E0,0E0,0E0,0E0,0E0,0E0,0E0,0E0,0E0,0E0,0E0,0E0,0E0,0E0,0E0,0E0,0E0,0E0,0E0,0E0,0E0,0E0],"parents":[2147483647,0,0,1,1,2,2,3,3,4,4,5,5,6,6,7,7,8,8,9,9,10,10,11,11,12,12,14,14,18,18,19,19,20,20,21,21,22,22,23,23,24,24,25,25,26,26,27,27,28,28],"right_children":[2,4,6,8,10,12,14,16,18,20,22,24,26,-1,28,-1,-1,-1,30,32,34,36,38,40,42,44,46,48,50,-1,-1,-1,-1,-1,-1,-1,-1,-1,-1,-1,-1,-1,-1,-1,-1,-1,-1,-1,-1,-1,-1],"split_conditions":[1.1599907E0,8.2063556E-1,1.4919975E0,3.6315644E-1,8.7598085E-1,7.628294E-1,1.5831658E0,1.9E1,4.237406E-1,-7.1898574E-1,-1.8265156E0,8E0,1.3220538E0,4.2941567E-2,1.6586385E0,2.0935507E-2,9.578811E-4,-3.161712E-2,6.22164E-1,8.5186094E-1,6.264364E-1,1.0141907E0,6.7255193E-1,1.3776808E0,-1.3892618E0,1.0486693E0,1.9391855E0,8.2949203E-1,-2.0283337E-1,-1.5455569E-2,-8.163576E-3,1.642064E-2,-7.2369464E-3,3.124213E-2,1.092426E-2,2.3448164E-2,-5.6970515E-3,-1.1588196E-2,2.999845E-3,-1.0086528E-3,-2.2516541E-2,4.1953802E-2,1.8566586E-3,1.1786427E-2,4.0623687E-2,-4.5729075E-3,2.2364695E-2,-8.162451E-3,5.8058547E-3,1.6568778E-2,3.2054126E-2],"split_indices":[4,4,4,4,4,2,4,0,4,2,2,0,2,0,4,0,0,0,4,4,2,4,2,4,2,2,2,2,2,0,0,0,0,0,0,0,0,0,0,0,0,0,0,0,0,0,0,0,0,0,0],"split_type":[0,0,0,0,0,0,0,0,0,0,0,0,0,0,0,0,0,0,0,0,0,0,0,0,0,0,0,0,0,0,0,0,0,0,0,0,0,0,0,0,0,0,0,0,0,0,0,0,0,0,0],"sum_hessian":[2.4211263E2,1.7472926E2,6.7383354E1,9.857232E1,7.615695E1,3.7880398E1,2.9502954E1,2.319114E0,9.6253204E1,1.2241175E1,6.3915775E1,2.1964767E1,1.5915631E1,4.4334555E0,2.50695E1,1.2961553E0,1.0229586E0,5.1904807E0,9.106272E1,5.220104E0,7.021071E0,6.120841E0,5.7794933E1,8.660841E0,1.3303926E1,4.973823E0,1.0941808E1,3.318606E0,2.1750895E1,3.454715E1,5.651557E1,1.7554331E0,3.464671E0,3.1151035E0,3.9059677E0,3.929344E0,2.191497E0,3.4452168E1,2.3342766E1,6.387805E0,2.2730365E0,2.4059312E0,1.0897995E1,2.7777216E0,2.1961014E0,4.591318E0,6.3504896E0,2.0866354E0,1.2319707E0,9.421814E0,1.232908E1],"tree_param":{"num_deleted":"0","num_feature":"5","num_nodes":"51","size_leaf_vector":"1"}},{"base_weights":[1.3265007E-2,-2.4455832E-1,6.2252116E-1,-5.904434E-1,-1.2282966E-1,3.8797182E-1,9.438405E-1,-9.809893E-1,-4.3863407E-1,3.4745283E-2,-1.6959834E-1,2.0193411E-1,6.465511E-1,1.2349411E0,7.4349254E-1,-1.0713364E0,-7.6262387E-3,1.1442292E-2,-4.859134E-1,2.5752848E-1,-2.2206363E-1,2.7268064E-1,-1.5735006E-2,4.0465973E-2,4.659702E-1,4.237208E-1,4.175126E-2,4.7816895E-2,9.756836E-1,-1.2032293E-2,-3.5200287E-2,-1.1302915E-2,-2.3075737E-2,-5.6244717E-3,2.613124E-2,-1.3464832E-2,-4.0400983E-3,5.7528606E-3,3.1993553E-2,3.3586035E-3,2.8070375E-2,3.1527694E-2,-1.3054111E-2,1.4216931E-2,-9.811581E-3,4.1549567E-2,1.6950827E-2],"categories":[],"categories_nodes":[],"categories_segments":[],"categories_sizes":[],"default_left":[0,0,0,0,0,0,0,0,0,0,0,0,0,0,0,0,0,0,0,0,0,0,0,0,0,0,0,0,0,0,0,0,0,0,0,0,0,0,0,0,0,0,0,0,0,0,0],"id":3,"left_children":[1,3,5,7,9,11,13,15,17,-1,19,21,23,25,27,29,-1,-1,31,33,35,37,-1,-1,39,41,-1,43,45,-1,-1,-1,-1,-1,-1,-1,-1,-1,-1,-1,-1,-1,-1,-1,-1,-1,-1],"loss_changes":[3.9207317E1,7.3133545E0,5.226801E0,2.2615356E0,8.045781E0,2.014748E0,8.6738396E-1,5.0902176E-1,1.5230365E0,0E0,2.9093235E0,1.5506763E0,1.680408E0,8.0516624E-1,3.288536E0,2.317667E-1,0E0,0E0,7.324481E-1,4.0910506E0,2.1965637E0,1.44092E0,0E0,0E0,2.5574465E0,2.1886365E0,0E0,1.1482239E0,1.8108082E0,0E0,0E0,0E0,0E0,0E0,0E0,0E0,0E0,0E0,0E0,0E0,0E0,0E0,0E0,0E0,0E0,0E0,0E0],"parents":[2147483647,0,0,1,1,2,2,3,3,4,4,5,5,6,6,7,7,8,8,10,10,11,11,12,12,13,13,14,14,15,15,18,18,19,19,20,20,21,21,24,24,25,25,27,27,28,28],"right_children":[2,4,6,8,10,12,14,16,18,-1,20,22,24,26,28,30,-1,-1,32,34,36,38,-1,-1,40,42,-1,44,46,-1,-1,-1,-1,-1,-1,-1,-1,-1,-1,-1,-1,-1,-1,-1,-1,-1,-1],"split_conditions":[1.1469858E0,6.268876E-1,1.4919975E0,-1.0159173E0,6.4866036E-1,7.628294E-1,1E0,5.9894663E-1,-9.285166E-1,3.4745283E-2,-1.8265156E0,6.1657876E-1,1.191273E0,-1.8265156E0,-2.0283337E-1,4.4074398E-1,-7.6262387E-3,1.1442292E-2,5.881495E-1,-2.397171E0,7.5017506E-1,4.8906642E-1,-1.5735006E-2,4.0465973E-2,1.3427266E0,1.8359516E0,4.175126E-2,-8.6301726E-1,1.2943493E0,-1.2032293E-2,-3.5200287E-2,-1.1302915E-2,-2.3075737E-2,-5.6244717E-3,2.613124E-2,-1.3464832E-2,-4.0400983E-3,5.7528606E-3,3.1993553E-2,3.3586035E-3,2.8070375E-2,3.1527694E-2,-1.3054111E-2,1.4216931E-2,-9.811581E-3,4.1549567E-2,1.6950827E-2],"split_indices":[4,4,4,2,4,2,3,4,2,0,2,2,4,2,2,4,0,0,4,2,4,2,0,0,4,4,0,2,2,0,0,0,0,0,0,0,0,0,0,0,0,0,0,0,0,0,0],"split_type":[0,0,0,0,0,0,0,0,0,0,0,0,0,0,0,0,0,0,0,0,0,0,0,0,0,0,0,0,0,0,0,0,0,0,0,0,0,0,0,0,0,0,0,0,0,0,0],"sum_hessian":[2.4763103E2,1.7441934E2,7.321169E1,4.4402287E1,1.3001706E2,4.3595947E1,2.9615746E1,1.0899683E1,3.3502605E1,3.7425919E0,1.2627446E2,2.6390179E1,1.720577E1,9.9682045E0,1.9647541E1,9.272876E0,1.6268066E0,1.4410429E0,3.206156E1,1.3386299E1,1.1288816E2,2.4617357E1,1.7728224E0,2.195897E0,1.5009872E1,2.2140567E0,7.754148E0,5.2184124E0,1.4429129E1,1.8762662E0,7.39661E0,2.4825924E1,7.2356377E0,8.16108E0,5.225219E0,3.0253202E1,8.263496E1,2.3466698E1,1.1506584E0,9.265141E0,5.7447324E0,1.1503533E0,1.0637033E0,2.3187404E0,2.8996718E0,6.038211E0,8.390918E0],"tree_param":{"num_deleted":"0","num_feature":"5","num_nodes":"47","size_leaf_vector":"1"}},{"base_weights":[2.7571429E-2,-1.8597041E-1,5.317746E-1,-1.6378836E-1,-3.0662974E-2,1.8166973E-1,7.128527E-1,-4.3003678E-1,-8.311434E-2,4.7314727E-1,-4.864657E-1,2.4246411E-1,8.9040345E-1,2.645604E-1,-4.955801E-1,-6.050135E-1,-4.0085472E-2,3.0082676E-1,3.384141E-2,-7.2564167E-1,3.673757E-2,5.2954767E-2,2.8295979E-2,5.4957175E-1,1.0936522E0,1.640115E-2,-5.81588E-3,-2.6957922E-2,-9.585819E-3,-2.6050963E-2,-6.638275E-3,5.946429E-3,-4.2669E-3,1.8032784E-2,-5.550997E-3,-2.7555728E-2,-9.696138E-3,9.894529E-3,-9.302106E-3,-2.9599718E-3,2.188185E-2,3.1838153E-2,9.092245E-3,3.9033495E-2,1.5108343E-2],"categories":[],"categories_nodes":[],"categories_segments":[],"categories_sizes":[],"default_left":[0,0,0,0,0,0,0,0,0,0,0,0,0,0,0,0,0,0,0,0,0,0,0,0,0,0,0,0,0,0,0,0,0,0,0,0,0,0,0,0,0,0,0,0,0],"id":4,"left_children":[1,3,5,7,-1,9,11,13,15,17,19,21,23,25,27,29,31,33,-1,35,37,39,-1,41,43,-1,-1,-1,-1,-1,-1,-1,-1,-1,-1,-1,-1,-1,-1,-1,-1,-1,-1,-1,-1],"loss_changes":[2.64536E1,3.0355196E0,4.5037785E0,3.603282E0,0E0,5.34347E0,3.7786217E0,1.9138088E0,2.9234672E0,1.7809238E0,1.0863543E0,1.8729739E0,1.7783642E0,6.2701714E-1,2.276331E0,8.1104374E-1,3.0059576E0,2.4801164E0,0E0,1.5798116E-1,4.69043E-1,1.3496139E0,0E0,1.5503182E0,1.8550186E0,0E0,0E0,0E0,0E0,0E0,0E0,0E0,0E0,0E0,0E0,0E0,0E0,0E0,0E0,0E0,0E0,0E0,0E0,0E0,0E0],"parents":[2147483647,0,0,1,1,2,2,3,3,5,5,6,6,7,7,8,8,9,9,10,10,11,11,12,12,13,13,14,14,15,15,16,16,17,17,19,19,20,20,21,21,23,23,24,24],"right_children":[2,4,6,8,-1,10,12,14,16,18,20,22,24,26,28,30,32,34,-1,36,38,40,-1,42,44,-1,-1,-1,-1,-1,-1,-1,-1,-1,-1,-1,-1,-1,-1,-1,-1,-1,-1,-1,-1],"split_conditions":[1.1469858E0,1.1368966E0,-4.4866273E-1,6.078591E-1,-3.0662974E-2,-9.6581507E-1,6E0,3.6315644E-1,2E0,-1.1608073E0,1.4919975E0,1.8749096E0,1.3343127E0,8.8721865E-1,-1.0159173E0,5.75951E-1,-7.4386126E-1,-1.5814263E0,3.384141E-2,1.2737286E0,1.2E1,2.374821E0,2.8295979E-2,1.191273E0,2E1,1.640115E-2,-5.81588E-3,-2.6957922E-2,-9.585819E-3,-2.6050963E-2,-6.638275E-3,5.946429E-3,-4.2669E-3,1.8032784E-2,-5.550997E-3,-2.7555728E-2,-9.696138E-3,9.894529E-3,-9.302106E-3,-2.9599718E-3,2.188185E-2,3.1838153E-2,9.092245E-3,3.9033495E-2,1.5108343E-2],"split_indices":[4,4,2,4,0,2,0,4,0,2,4,4,4,2,2,2,2,2,0,4,0,2,0,4,0,0,0,0,0,0,0,0,0,0,0,0,0,0,0,0,0,0,0,0,0],"split_type":[0,0,0,0,0,0,0,0,0,0,0,0,0,0,0,0,0,0,0,0,0,0,0,0,0,0,0,0,0,0,0,0,0,0,0,0,0,0,0,0,0,0,0,0,0],"sum_hessian":[2.4377643E2,1.71692E2,7.208442E1,1.6841982E2,3.2721994E0,2.5256193E1,4.6828228E1,3.8157635E1,1.3026218E2,1.7787949E1,7.468245E0,1.3480275E1,3.3347954E1,3.0283363E0,3.51293E1,8.926889E0,1.2133529E2,1.5237839E1,2.5501091E0,4.8597493E0,2.608496E0,1.1457294E1,2.0229812E0,1.3841244E1,1.950671E1,1.7553794E0,1.2729568E0,9.432477E0,2.5696821E1,4.5448976E0,4.381992E0,3.6122402E1,8.521288E1,9.271061E0,5.9667773E0,2.4182901E0,2.441459E0,1.4403099E0,1.1681862E0,1.0057172E1,1.400122E0,3.4252965E0,1.0415947E1,1.3540578E1,5.9661326E0],"tree_param":{"num_deleted":"0","num_feature":"5","num_nodes":"45","size_leaf_vector":"1"}},{"base_weights":[3.5263907E-2,-1.6156282E-1,5.059042E-1,-2.9377148E-1,1.943371E-2,2.131101E-1,7.0233965E-1,4.8478946E-1,-3.2148755E-1,1.336053E-1,-5.1482856E-1,4.7748318E-1,-1.616049E-1,3.3350644E-1,8.9857155E-1,-5.2910876E-3,2.6243515E-2,-9.245533E-1,-2.90357E-1,7.127885E-1,5.901288E-2,-8.031165E-1,-1.6628519E-1,1.7683232E-1,3.935301E-2,-5.042204E-1,3.320234E-1,3.7192047E-2,1.8716889E-2,1.316648E0,4.602505E-1,-3.4736264E-2,-5.989073E-3,1.1487179E-2,-9.547045E-3,2.6686896E-2,1.9408742E-3,1.6250202E-2,-2.6536346E-4,-7.163149E-3,-3.2039408E-2,1.9097523E-3,-1.7745083E-2,4.5202722E-4,2.1983922E-2,4.18379E-3,-2.0647727E-2,2.2863537E-2,-2.5598357E-2,-1.1047264E-2,1.0912765E-2,4.4410266E-2,2.3102004E-2,2.0996945E-3,2.5337132E-2],"categories":[],"categories_nodes":[],"categories_segments":[],"categories_sizes":[],"default_left":[0,0,0,0,0,0,0,0,0,0,0,0,0,0,0,0,0,0,0,0,0,0,0,0,0,0,0,0,0,0,0,0,0,0,0,0,0,0,0,0,0,0,0,0,0,0,0,0,0,0,0,0,0,0,0],"id":5,"left_children":[1,3,5,7,9,11,13,15,17,19,21,23,25,27,29,-1,-1,31,33,35,37,39,41,43,-1,45,47,-1,49,51,53,-1,-1,-1,-1,-1,-1,-1,-1,-1,-1,-1,-1,-1,-1,-1,-1,-1,-1,-1,-1,-1,-1,-1,-1],"loss_changes":[2.2993423E1,4.1970863E0,4.0591316E0,2.3413897E0,4.63593E0,3.1301162E0,2.8385544E0,1.1548268E0,1.578927E0,2.6574507E0,1.2118282E0,4.3637595E0,2.4498537E0,4.725945E0,4.4722424E0,0E0,0E0,5.0838995E-1,1.9054794E0,7.488742E-1,1.8535386E0,8.0133295E-1,7.5360566E-1,1.3042074E0,0E0,1.086721E0,3.7764513E0,0E0,1.9192355E0,8.0976486E-2,2.2005327E0,0E0,0E0,0E0,0E0,0E0,0E0,0E0,0E0,0E0,0E0,0E0,0E0,0E0,0E0,0E0,0E0,0E0,0E0,0E0,0E0,0E0,0E0,0E0,0E0],"parents":[2147483647,0,0,1,1,2,2,3,3,4,4,5,5,6,6,7,7,8,8,9,9,10,10,11,11,12,12,13,13,14,14,17,17,18,18,19,19,20,20,21,21,22,22,23,23,25,25,26,26,28,28,29,29,30,30],"right_children":[2,4,6,8,10,12,14,16,18,20,22,24,26,28,30,-1,-1,32,34,36,38,40,42,44,-1,46,48,-1,50,52,54,-1,-1,-1,-1,-1,-1,-1,-1,-1,-1,-1,-1,-1,-1,-1,-1,-1,-1,-1,-1,-1,-1,-1,-1],"split_conditions":[1.1469858E0,8.221226E-1,-2.0283337E-1,-2.7848818E0,1.0883214E0,-8.8872117E-1,1.3427266E0,6E0,-2.3549953E0,8.5186094E-1,1E0,1.6E1,-4.4866273E-1,1.1980349E0,1.2165102E0,-5.2910876E-3,2.6243515E-2,6.268876E-1,-1.8265156E0,1.5974511E0,-1.89964E0,-9.285166E-1,1.1368966E0,-1.1608073E0,3.935301E-2,8E0,-2.2524305E-1,3.7192047E-2,1.0486693E0,1.7E1,1.9958537E0,-3.4736264E-2,-5.989073E-3,1.1487179E-2,-9.547045E-3,2.6686896E-2,1.9408742E-3,1.6250202E-2,-2.6536346E-4,-7.163149E-3,-3.2039408E-2,1.9097523E-3,-1.7745083E-2,4.5202722E-4,2.1983922E-2,4.18379E-3,-2.0647727E-2,2.2863537E-2,-2.5598357E-2,-1.1047264E-2,1.0912765E-2,4.4410266E-2,2.3102004E-2,2.0996945E-3,2.5337132E-2],"split_indices":[4,4,2,2,4,2,4,0,2,4,3,0,2,4,2,0,0,4,2,2,2,2,4,2,0,0,2,0,2,0,2,0,0,0,0,0,0,0,0,0,0,0,0,0,0,0,0,0,0,0,0,0,0,0,0],"split_type":[0,0,0,0,0,0,0,0,0,0,0,0,0,0,0,0,0,0,0,0,0,0,0,0,0,0,0,0,0,0,0,0,0,0,0,0,0,0,0,0,0,0,0,0,0,0,0,0,0,0,0,0,0,0,0],"sum_hessian":[2.4633408E2,1.7415665E2,7.217743E1,1.0028242E2,7.387424E1,2.9817806E1,4.2359623E1,2.8803492E0,9.740207E1,6.148487E1,1.2389362E1,1.7322199E1,1.2495607E1,1.5647837E1,2.6711784E1,1.2718836E0,1.6084656E0,3.3723888E0,9.402968E1,6.0389366E0,5.5445934E1,6.0670023E0,6.3223605E0,1.3624349E1,3.69785E0,7.3633947E0,5.1322126E0,3.276635E0,1.23712015E1,1.26460085E1,1.4065776E1,2.099418E0,1.272971E0,3.23233E0,9.079735E1,4.452013E0,1.5869238E0,5.973734E0,4.9472202E1,2.545276E0,3.5217261E0,4.6552486E0,1.667112E0,1.134925E1,2.2750993E0,1.6910558E0,5.672339E0,4.0277452E0,1.1044672E0,5.7996964E0,6.5715055E0,8.416889E0,4.22912E0,7.5654774E0,6.500298E0],"tree_param":{"num_deleted":"0","num_feature":"5","num_nodes":"55","size_leaf_vector":"1"}},{"base_weights":[1.2803944E-2,-2.8934515E-1,4.1020647E-1,-4.5914197E-1,-2.0778213E-1,2.0871586E-1,7.5394505E-1,-8.9391387E-1,-3.3452672E-1,3.9104933E-1,-2.6486087E-1,-7.339185E-1,2.807793E-1,5.940564E-1,1.0344352E0,-9.350209E-3,-9.669235E-1,-1.4410561E-1,-6.382248E-1,1.5684152E-1,3.130442E-2,2.2655989E-1,-3.2716465E-1,-7.529462E-4,-3.0404909E-2,3.524725E-2,2.2016503E-1,3.8603175E-1,9.891316E-1,2.8806077E-3,1.1166842E0,-7.9864245E-3,-3.1485938E-2,6.052777E-3,-9.158845E-3,-2.3000285E-2,-4.5392867E-3,2.0703707E-2,-1.803878E-3,3.330624E-2,-1.1217618E-2,-2.4789255E-2,-8.233431E-3,5.2513723E-4,1.76123E-2,2.007782E-2,2.937564E-4,1.5527435E-2,4.1814357E-2,3.6597338E-2,3.890102E-3],"categories":[],"categories_nodes":[],"categories_segments":[],"categories_sizes":[],"default_left":[0,0,0,0,0,0,0,0,0,0,0,0,0,0,0,0,0,0,0,0,0,0,0,0,0,0,0,0,0,0,0,0,0,0,0,0,0,0,0,0,0,0,0,0,0,0,0,0,0,0,0],"id":6,"left_children":[1,3,5,7,9,11,13,15,17,19,21,23,25,27,29,-1,31,33,35,37,-1,39,41,-1,-1,-1,43,45,47,-1,49,-1,-1,-1,-1,-1,-1,-1,-1,-1,-1,-1,-1,-1,-1,-1,-1,-1,-1,-1,-1],"loss_changes":[2.9645332E1,1.8473406E0,7.2273693E0,2.1223412E0,3.404963E0,4.8662453E0,1.1354256E0,9.643841E-2,2.009241E0,1.1823939E0,2.7922664E0,9.9492145E-1,3.234552E0,1.8537664E0,8.8212204E-1,0E0,1.7439318E-1,1.3785944E0,7.415204E-1,9.27691E-1,0E0,6.0289755E0,1.8571806E0,0E0,0E0,0E0,4.5696745E0,2.067079E0,9.4691086E-1,0E0,1.0329742E0,0E0,0E0,0E0,0E0,0E0,0E0,0E0,0E0,0E0,0E0,0E0,0E0,0E0,0E0,0E0,0E0,0E0,0E0,0E0,0E0],"parents":[2147483647,0,0,1,1,2,2,3,3,4,4,5,5,6,6,7,7,8,8,9,9,10,10,11,11,12,12,13,13,14,14,16,16,17,17,18,18,19,19,21,21,22,22,26,26,27,27,28,28,30,30],"right_children":[2,4,6,8,10,12,14,16,18,20,22,24,26,28,30,-1,32,34,36,38,-1,40,42,-1,-1,-1,44,46,48,-1,50,-1,-1,-1,-1,-1,-1,-1,-1,-1,-1,-1,-1,-1,-1,-1,-1,-1,-1,-1,-1],"split_conditions":[9.7194666E-1,6.22164E-1,1.3937093E0,-1.5028932E0,-1.9879986E0,-2.397171E0,1.9038184E0,3E0,5.681895E-1,8.998577E-1,6.699739E-1,-2.7848818E0,-1.8265156E0,1E0,-1.7930434E0,-9.350209E-3,-2.931926E0,7.909897E-2,1.7343735E0,6.989323E-1,3.130442E-2,-2.0347994E-3,-1.4467651E0,-7.529462E-4,-3.0404909E-2,3.524725E-2,1.0030115E0,1.6086984E0,-3.1767868E-2,2.8806077E-3,2.5366626E0,-7.9864245E-3,-3.1485938E-2,6.052777E-3,-9.158845E-3,-2.3000285E-2,-4.5392867E-3,2.0703707E-2,-1.803878E-3,3.330624E-2,-1.1217618E-2,-2.4789255E-2,-8.233431E-3,5.2513723E-4,1.76123E-2,2.007782E-2,2.937564E-4,1.5527435E-2,4.1814357E-2,3.6597338E-2,3.890102E-3],"split_indices":[4,4,4,2,2,2,4,0,4,4,4,2,2,1,2,0,2,2,2,4,0,2,2,0,0,0,2,4,2,0,2,0,0,0,0,0,0,0,0,0,0,0,0,0,0,0,0,0,0,0,0],"split_type":[0,0,0,0,0,0,0,0,0,0,0,0,0,0,0,0,0,0,0,0,0,0,0,0,0,0,0,0,0,0,0,0,0,0,0,0,0,0,0,0,0,0,0,0,0,0,0,0,0,0,0],"sum_hessian":[2.4490204E2,1.3927885E2,1.05623184E2,4.3692043E1,9.55868E1,6.7603165E1,3.8020023E1,8.3580675E0,3.5333977E1,7.8090005E0,8.77778E1,4.1488814E0,6.345428E1,2.6201962E1,1.1818061E1,1.5183558E0,6.839711E0,2.2623417E1,1.2710561E1,6.6589766E0,1.1500238E0,9.579915E0,7.819788E1,1.4818056E0,2.6670759E0,2.8614388E0,6.0592842E1,1.8459387E1,7.742576E0,1.1270053E0,1.0691055E1,1.1666214E0,5.67309E0,7.1118274E0,1.5511589E1,9.602738E0,3.1078227E0,1.2950976E0,5.3638787E0,3.5325944E0,6.047321E0,6.0681276E0,7.212976E1,3.970812E1,2.0884724E1,1.0087112E1,8.372273E0,4.628381E0,3.1141956E0,9.465178E0,1.2258781E0],"tree_param":{"num_deleted":"0","num_feature":"5","num_nodes":"51","size_leaf_vector":"1"}},{"base_weights":[1.4459784E-2,-1.9349267E-1,5.3786E-1,-4.7559434E-1,-9.381495E-2,3.866572E-1,7.2672296E-1,-1.0434098E0,-3.256677E-1,9.3002045E-1,-1.3111864E-1,1.9530404E-1,7.3684007E-1,1.22080125E-1,8.43593E-1,-3.6814976E-2,-4.7998764E-3,-2.0641002E-1,-6.844234E-1,3.8468096E-2,6.6417707E-3,3.2311577E-1,-1.8988132E-1,3.5743475E-1,-2.834462E-1,8.6822516E-1,-1.3801906E-2,5.574919E-1,-3.7276503E-1,3.9637983E-2,6.173314E-1,-8.014002E-3,1.5571137E-2,-2.9232712E-2,1.5558439E-3,-4.763296E-4,2.1119434E-2,-3.985224E-3,-1.593679E-2,1.6955646E-4,2.23772E-2,-2.1575693E-2,5.0164545E-3,3.0441817E-2,-1.0340643E-2,2.405409E-2,-1.0182433E-3,-1.84392E-2,1.9815224E-3,-3.9441697E-3,2.4362106E-2],"categories":[],"categories_nodes":[],"categories_segments":[],"categories_sizes":[],"default_left":[0,0,0,0,0,0,0,0,0,0,0,0,0,0,0,0,0,0,0,0,0,0,0,0,0,0,0,0,0,0,0,0,0,0,0,0,0,0,0,0,0,0,0,0,0,0,0,0,0,0,0],"id":7,"left_children":[1,3,5,7,9,11,13,15,17,19,21,23,25,27,29,-1,-1,31,33,-1,-1,35,37,39,41,43,-1,45,47,-1,49,-1,-1,-1,-1,-1,-1,-1,-1,-1,-1,-1,-1,-1,-1,-1,-1,-1,-1,-1,-1],"loss_changes":[2.700167E1,4.949153E0,1.7331562E0,3.5865421E0,5.1813936E0,2.6241088E0,2.0327396E0,1.2939377E0,1.4820108E0,9.093957E-1,3.4963684E0,2.2803125E0,2.6380897E0,1.5145355E0,1.9034653E0,0E0,0E0,1.4561085E0,1.9794903E0,0E0,0E0,1.9622194E0,2.160348E0,2.9220433E0,1.6243889E0,2.6907148E0,0E0,5.5126846E-1,4.0549457E-1,0E0,2.8699331E0,0E0,0E0,0E0,0E0,0E0,0E0,0E0,0E0,0E0,0E0,0E0,0E0,0E0,0E0,0E0,0E0,0E0,0E0,0E0,0E0],"parents":[2147483647,0,0,1,1,2,2,3,3,4,4,5,5,6,6,7,7,8,8,9,9,10,10,11,11,12,12,13,13,14,14,17,17,18,18,21,21,22,22,23,23,24,24,25,25,27,27,28,28,30,30],"right_children":[2,4,6,8,10,12,14,16,18,20,22,24,26,28,30,-1,-1,32,34,-1,-1,36,38,40,42,44,-1,46,48,-1,50,-1,-1,-1,-1,-1,-1,-1,-1,-1,-1,-1,-1,-1,-1,-1,-1,-1,-1,-1,-1],"split_conditions":[1.1599907E0,6.268876E-1,1.4919975E0,-1.6178567E0,6.4866036E-1,1.4E1,-1.3536177E0,5.9894663E-1,5.881495E-1,2.4801393E-1,-1.7328113E0,1.1E1,1.4741504E0,1.9285454E0,1E0,-3.6814976E-2,-4.7998764E-3,2.4553072E0,5.4505724E-1,3.8468096E-2,6.6417707E-3,-2.397171E0,1.0783743E0,6E0,1.2907809E0,2.3E1,-1.3801906E-2,1.7E1,-1.8265156E0,3.9637983E-2,-2.0283337E-1,-8.014002E-3,1.5571137E-2,-2.9232712E-2,1.5558439E-3,-4.763296E-4,2.1119434E-2,-3.985224E-3,-1.593679E-2,1.6955646E-4,2.23772E-2,-2.1575693E-2,5.0164545E-3,3.0441817E-2,-1.0340643E-2,2.405409E-2,-1.0182433E-3,-1.84392E-2,1.9815224E-3,-3.9441697E-3,2.4362106E-2],"split_indices":[4,4,4,2,4,0,2,4,4,2,2,0,4,4,3,0,0,2,2,0,0,2,4,0,4,0,0,0,2,0,2,0,0,0,0,0,0,0,0,0,0,0,0,0,0,0,0,0,0,0,0],"split_type":[0,0,0,0,0,0,0,0,0,0,0,0,0,0,0,0,0,0,0,0,0,0,0,0,0,0,0,0,0,0,0,0,0,0,0,0,0,0,0,0,0,0,0,0,0,0,0,0,0,0,0],"sum_hessian":[2.4612437E2,1.7659258E2,6.953179E1,4.512142E1,1.3147116E2,4.0308384E1,2.9223406E1,8.180403E0,3.6941017E1,3.7805066E0,1.2769065E2,2.7072605E1,1.3235778E1,5.0647616E0,2.4158644E1,6.4497037E0,1.7306991E0,2.890707E1,8.033949E0,1.9845188E0,1.7959878E0,1.4111369E1,1.13579285E2,2.0413044E1,6.6595607E0,1.2174031E1,1.0617462E0,2.6268291E0,2.4379325E0,6.209622E0,1.7949022E1,2.7257277E1,1.6497942E0,5.531733E0,2.5022159E0,7.973119E0,6.1382504E0,9.850736E1,1.5071923E1,1.1244802E1,9.168242E0,3.0828779E0,3.5766828E0,1.1007843E1,1.1661886E0,1.6072193E0,1.0196097E0,1.3133409E0,1.1245915E0,3.7715712E0,1.4177451E1],"tree_param":{"num_deleted":"0","num_feature":"5","num_nodes":"51","size_leaf_vector":"1"}},{"base_weights":[-2.1011035E-3,-1.9227783E-1,4.62113E-1,-3.3846897E-1,-1.7268393E-2,2.064562E-1,7.0180917E-1,-3.0802426E-1,-2.8680285E-2,9.5365256E-2,-4.8761728E-1,-2.2038008E-1,4.10006E-1,2.5487322E-1,8.0537385E-1,-7.708627E-1,-2.8272584E-1,5.0788546E-1,-3.7691515E-2,-6.8633896E-1,2.6465666E-1,1.5167907E-1,-4.1940877E-1,9.67333E-1,2.111828E-1,5.909379E-1,-2.3867166E-1,1.0444912E0,3.688495E-1,-7.5201825E-3,-2.6602997E-2,-1.5873032E-3,-1.0532976E-2,2.0359335E-2,-1.841182E-2,-5.634511E-3,9.238268E-3,-2.6224429E-2,-2.882085E-3,-2.134206E-2,2.8065749E-2,-1.116472E-2,1.837458E-2,5.181627E-4,-2.033409E-2,-3.2885096E-3,3.878292E-2,-1.6586175E-2,9.536616E-3,-1.0633008E-3,2.9927671E-2,-1.1815799E-2,1.5960351E-4,1.8346433E-2,3.847448E-2,1.1716575E-3,2.5257438E-2],"categories":[],"categories_nodes":[],"categories_segments":[],"categories_sizes":[],"default_left":[0,0,0,0,0,0,0,0,0,0,0,0,0,0,0,0,0,0,0,0,0,0,0,0,0,0,0,0,0,0,0,0,0,0,0,0,0,0,0,0,0,0,0,0,0,0,0,0,0,0,0,0,0,0,0,0,0],"id":8,"left_children":[1,3,5,7,9,11,13,15,-1,17,19,21,23,25,27,29,31,33,35,37,39,41,43,45,47,49,51,53,55,-1,-1,-1,-1,-1,-1,-1,-1,-1,-1,-1,-1,-1,-1,-1,-1,-1,-1,-1,-1,-1,-1,-1,-1,-1,-1,-1,-1],"loss_changes":[2.1873875E1,4.4908595E0,4.267729E0,1.5049391E0,4.34017E0,3.240759E0,1.4956341E0,8.673439E-1,0E0,3.6541643E0,2.5469508E0,9.787912E-1,2.5550604E0,1.5303323E0,2.6804943E0,3.241396E-2,1.3871827E0,3.5231085E0,2.704413E0,1.334362E0,3.3030534E0,1.4449079E0,9.501926E-1,2.338614E0,1.7764151E0,1.3779196E0,1.5754431E-1,1.1147003E0,1.8300267E0,0E0,0E0,0E0,0E0,0E0,0E0,0E0,0E0,0E0,0E0,0E0,0E0,0E0,0E0,0E0,0E0,0E0,0E0,0E0,0E0,0E0,0E0,0E0,0E0,0E0,0E0,0E0,0E0],"parents":[2147483647,0,0,1,1,2,2,3,3,4,4,5,5,6,6,7,7,9,9,10,10,11,11,12,12,13,13,14,14,15,15,16,16,17,17,18,18,19,19,20,20,21,21,22,22,23,23,24,24,25,25,26,26,27,27,28,28],"right_children":[2,4,6,8,10,12,14,16,-1,18,20,22,24,26,28,30,32,34,36,38,40,42,44,46,48,50,52,54,56,-1,-1,-1,-1,-1,-1,-1,-1,-1,-1,-1,-1,-1,-1,-1,-1,-1,-1,-1,-1,-1,-1,-1,-1,-1,-1,-1,-1],"split_conditions":[1.1469858E0,7.9080045E-1,1.4119912E0,7.8488123E-1,1.0783743E0,-6.372217E-1,-1.3536177E0,1E0,-2.8680285E-2,-9.6581507E-1,1.2468201E0,-1.5814263E0,1.191273E0,1.8749096E0,1.1917069E0,4.7547525E-1,6E0,2.2E1,9.7194666E-1,1.5E1,5E0,7E0,1E1,-2.0283337E-1,1.2128607E0,1.5162857E0,-1.8265156E0,-2.7663726E-1,2.062502E0,-7.5201825E-3,-2.6602997E-2,-1.5873032E-3,-1.0532976E-2,2.0359335E-2,-1.841182E-2,-5.634511E-3,9.238268E-3,-2.6224429E-2,-2.882085E-3,-2.134206E-2,2.8065749E-2,-1.116472E-2,1.837458E-2,5.181627E-4,-2.033409E-2,-3.2885096E-3,3.878292E-2,-1.6586175E-2,9.536616E-3,-1.0633008E-3,2.9927671E-2,-1.1815799E-2,1.5960351E-4,1.8346433E-2,3.847448E-2,1.1716575E-3,2.5257438E-2],"split_indices":[4,4,4,4,4,2,2,0,0,2,2,2,4,4,2,2,0,0,4,0,0,0,0,2,4,4,2,2,2,0,0,0,0,0,0,0,0,0,0,0,0,0,0,0,0,0,0,0,0,0,0,0,0,0,0,0,0],"split_type":[0,0,0,0,0,0,0,0,0,0,0,0,0,0,0,0,0,0,0,0,0,0,0,0,0,0,0,0,0,0,0,0,0,0,0,0,0,0,0,0,0,0,0,0,0,0,0,0,0,0,0,0,0,0,0,0,0],"sum_hessian":[2.4576425E2,1.7475667E2,7.1007576E1,9.470907E1,8.00476E1,3.5260506E1,3.574707E1,9.168766E1,3.0214083E0,6.5225426E1,1.4822176E1,1.1358814E1,2.3901691E1,7.3761435E0,2.8370926E1,3.2244792E0,8.846318E1,1.522032E1,5.0005108E1,1.1794241E1,3.0279348E0,4.0415487E0,7.3172655E0,5.268399E0,1.8633293E1,4.270762E0,3.1053815E0,1.7430294E1,1.0940633E1,1.1638316E0,2.0606477E0,2.0690931E1,6.7772255E1,1.3552038E1,1.668281E0,3.5180927E1,1.4824182E1,8.58256E0,3.2116816E0,1.2088039E0,1.8191309E0,1.9814521E0,2.060097E0,3.0670953E0,4.25017E0,1.3764553E0,3.8919437E0,1.7709659E0,1.6862328E1,2.040515E0,2.2302468E0,1.5226696E0,1.582712E0,7.4490113E0,9.981282E0,7.084369E0,3.8562636E0],"tree_param":{"num_deleted":"0","num_feature":"5","num_nodes":"57","size_leaf_vector":"1"}},{"base_weights":[2.5308756E-2,-9.049855E-2,1.8549111E-1,-5.090167E-2,-4.323975E-1,6.289766E-2,4.130942E-1,-1.4490283E-1,2.108279E-1,2.4955628E-2,-6.8266594E-1,2.4470358E-1,-6.840444E-2,2.6270181E-2,2.0321794E-1,-1.8637632E-1,2.3511127E-1,-1.5826724E-1,3.1754357E-1,-4.5665184E-1,2.5395764E-2,-2.898049E-2,-1.21502E-1,3.6867347E-2,8.6809456E-1,-3.0023532E-2,8.059368E-2,-1.2405444E-1,3.549575E-1,-2.790347E-3,-1.8935012E-2,3.0460034E-2,-3.4731987E-3,6.932551E-3,-1.797438E-2,2.956061E-2,5.75945E-3,-3.6689418E-3,-1.9229269E-2,8.12711E-3,-1.6270343E-2,9.787885E-3,-1.2881478E-2,3.2407723E-2,1.1270535E-2,1.2129862E-2,-2.8711623E-3,5.434383E-3,-1.20903645E-2,2.6750777E-2,6.0279495E-3],"categories":[],"categories_nodes":[],"categories_segments":[],"categories_sizes":[],"default_left":[0,0,0,0,0,0,0,0,0,0,0,0,0,0,0,0,0,0,0,0,0,0,0,0,0,0,0,0,0,0,0,0,0,0,0,0,0,0,0,0,0,0,0,0,0,0,0,0,0,0,0],"id":9,"left_children":[1,3,5,7,9,11,13,15,17,19,21,23,25,-1,27,29,31,33,35,37,-1,-1,39,41,43,-1,45,47,49,-1,-1,-1,-1,-1,-1,-1,-1,-1,-1,-1,-1,-1,-1,-1,-1,-1,-1,-1,-1,-1,-1],"loss_changes":[4.512343E0,1.8912929E0,2.820572E0,3.1745884E0,1.6807759E0,1.6276759E0,3.2718062E0,1.5350078E0,1.3963886E0,2.8023784E0,1.3820329E0,3.662856E0,5.632833E0,0E0,1.3225665E0,3.5070083E0,2.7873793E0,1.5687737E0,2.061704E0,1.9886494E-1,0E0,0E0,8.583131E-1,3.166816E0,3.3445787E-1,0E0,2.0582464E0,8.3044535E-1,1.296428E0,0E0,0E0,0E0,0E0,0E0,0E0,0E0,0E0,0E0,0E0,0E0,0E0,0E0,0E0,0E0,0E0,0E0,0E0,0E0,0E0,0E0,0E0],"parents":[2147483647,0,0,1,1,2,2,3,3,4,4,5,5,6,6,7,7,8,8,9,9,10,10,11,11,12,12,14,14,15,15,16,16,17,17,18,18,19,19,22,22,23,23,24,24,26,26,27,27,28,28],"right_children":[2,4,6,8,10,12,14,16,18,20,22,24,26,-1,28,30,32,34,36,38,-1,-1,40,42,44,-1,46,48,50,-1,-1,-1,-1,-1,-1,-1,-1,-1,-1,-1,-1,-1,-1,-1,-1,-1,-1,-1,-1,-1,-1],"split_conditions":[1.2E1,1.1E1,7.8192765E-1,8E0,-2.2524305E-1,-7.1898574E-1,1.2943493E0,2.4132388E0,-1.3536177E0,-8.309009E-1,1.2468201E0,-1.1306803E0,-6.2164855E-1,2.6270181E-2,1.7165065E0,1.5011498E0,2.7199934E0,-1.7635363E0,-6.861644E-1,-1.5984893E0,2.5395764E-2,-2.898049E-2,2.483539E0,-1.5241171E0,1.8E1,-3.0023532E-2,1E0,1.553029E0,1.9498712E0,-2.790347E-3,-1.8935012E-2,3.0460034E-2,-3.4731987E-3,6.932551E-3,-1.797438E-2,2.956061E-2,5.75945E-3,-3.6689418E-3,-1.9229269E-2,8.12711E-3,-1.6270343E-2,9.787885E-3,-1.2881478E-2,3.2407723E-2,1.1270535E-2,1.2129862E-2,-2.8711623E-3,5.434383E-3,-1.20903645E-2,2.6750777E-2,6.0279495E-3],"split_indices":[0,0,2,0,2,2,2,2,2,2,2,2,2,0,2,2,2,2,2,2,0,0,2,2,0,0,3,2,2,0,0,0,0,0,0,0,0,0,0,0,0,0,0,0,0,0,0,0,0,0,0],"split_type":[0,0,0,0,0,0,0,0,0,0,0,0,0,0,0,0,0,0,0,0,0,0,0,0,0,0,0,0,0,0,0,0,0,0,0,0,0,0,0,0,0,0,0,0,0,0,0,0,0,0,0],"sum_hessian":[2.4134427E2,1.4032692E2,1.0101736E2,1.2679149E2,1.3535424E1,6.64837E1,3.4533653E1,9.36155E1,3.317599E1,5.1055565E0,8.429868E0,2.7517817E1,3.896589E1,9.788015E0,2.4745638E1,8.486335E1,8.752154E0,7.3324227E0,2.5843569E1,3.4987483E0,1.6068082E0,5.1220975E0,3.3077698E0,2.1431705E1,6.08611E0,4.5812454E0,3.4384644E1,7.896624E0,1.6849014E1,7.1139725E1,1.3723622E1,2.127601E0,6.6245537E0,4.14644E0,3.185983E0,3.006377E0,2.283719E1,1.8345202E0,1.664228E0,1.8960874E0,1.4116824E0,1.3409092E1,8.022614E0,3.4191134E0,2.666997E0,1.1667108E1,2.2717535E1,3.9383776E0,3.9582467E0,2.6890876E0,1.4159926E1],"tree_param":{"num_deleted":"0","num_feature":"5","num_nodes":"51","size_leaf_vector":"1"}},{"base_weights":[4.227716E-2,-1.5972501E-1,5.176129E-1,-4.591911E-1,-5.541493E-2,2.7033836E-1,7.333166E-1,-9.033463E-1,-3.4320158E-1,5.8999866E-1,-1.3287953E-1,6.073619E-2,6.9143283E-1,3.3778116E-1,8.045987E-1,-9.317045E-3,-2.9623695E-2,-1.8441203E-1,-6.060811E-1,9.4431275E-1,-2.2538821E-1,2.8617963E-2,-1.6945775E-1,-2.762082E-1,1.7707957E-1,8.2178646E-1,-5.0020097E-3,6.892627E-1,-1.4249016E-2,4.0793452E-2,7.0590025E-1,-1.0012931E-2,5.9377635E-3,-2.3693915E-2,-1.170424E-3,3.550112E-2,1.1541974E-2,-2.0159591E-2,1.2894306E-2,-1.3857091E-2,-1.8439423E-3,-2.8610064E-2,4.281586E-3,2.7020957E-2,-1.8372907E-3,2.8588656E-2,1.0706873E-2,5.0844555E-3,2.655455E-2,-1.206141E-2,2.5182141E-2],"categories":[],"categories_nodes":[],"categories_segments":[],"categories_sizes":[],"default_left":[0,0,0,0,0,0,0,0,0,0,0,0,0,0,0,0,0,0,0,0,0,0,0,0,0,0,0,0,0,0,0,0,0,0,0,0,0,0,0,0,0,0,0,0,0,0,0,0,0,0,0],"id":10,"left_children":[1,3,5,7,9,11,13,15,17,19,21,23,25,27,29,-1,-1,31,33,35,37,-1,39,41,43,45,-1,47,-1,-1,49,-1,-1,-1,-1,-1,-1,-1,-1,-1,-1,-1,-1,-1,-1,-1,-1,-1,-1,-1,-1],"loss_changes":[2.3406757E1,5.323395E0,3.6783218E0,1.9617968E0,6.4846764E0,3.0865064E0,8.0620956E-1,1.1806154E-1,1.4151535E0,4.232874E0,4.742032E0,1.0196136E0,1.4439907E0,2.4875245E0,7.756138E-1,0E0,0E0,1.45035E0,1.3586836E0,8.680706E-1,1.7583901E0,0E0,3.5188005E0,2.050732E0,3.3345304E0,2.8867817E-1,0E0,4.2901468E-1,0E0,0E0,4.6227274E0,0E0,0E0,0E0,0E0,0E0,0E0,0E0,0E0,0E0,0E0,0E0,0E0,0E0,0E0,0E0,0E0,0E0,0E0,0E0,0E0],"parents":[2147483647,0,0,1,1,2,2,3,3,4,4,5,5,6,6,7,7,8,8,9,9,10,10,11,11,12,12,13,13,14,14,17,17,18,18,19,19,20,20,22,22,23,23,24,24,25,25,27,27,30,30],"right_children":[2,4,6,8,10,12,14,16,18,20,22,24,26,28,30,-1,-1,32,34,36,38,-1,40,42,44,46,-1,48,-1,-1,50,-1,-1,-1,-1,-1,-1,-1,-1,-1,-1,-1,-1,-1,-1,-1,-1,-1,-1,-1,-1],"split_conditions":[1.1469858E0,6.268876E-1,1.3981073E0,-1.6178567E0,-1.7328113E0,1.0486693E0,-1.4127351E0,-3.1180618E0,5.681895E-1,9.907371E-1,6.4866036E-1,-1.3749126E0,1.3742126E0,1.9971148E0,-7.4386126E-1,-9.317045E-3,-2.9623695E-2,5.246E-1,1.7343735E0,1E0,-2.397171E0,2.8617963E-2,7.5196683E-1,1.1980349E0,1.1980349E0,2.5845387E0,-5.0020097E-3,1.4847995E0,-1.4249016E-2,4.0793452E-2,-4.4866273E-1,-1.0012931E-2,5.9377635E-3,-2.3693915E-2,-1.170424E-3,3.550112E-2,1.1541974E-2,-2.0159591E-2,1.2894306E-2,-1.3857091E-2,-1.8439423E-3,-2.8610064E-2,4.281586E-3,2.7020957E-2,-1.8372907E-3,2.8588656E-2,1.0706873E-2,5.0844555E-3,2.655455E-2,-1.206141E-2,2.5182141E-2],"split_indices":[4,4,4,2,2,2,2,2,4,4,4,2,4,4,2,0,0,4,2,1,2,0,4,4,4,2,0,4,0,0,2,0,0,0,0,0,0,0,0,0,0,0,0,0,0,0,0,0,0,0,0],"split_type":[0,0,0,0,0,0,0,0,0,0,0,0,0,0,0,0,0,0,0,0,0,0,0,0,0,0,0,0,0,0,0,0,0,0,0,0,0,0,0,0,0,0,0,0,0,0,0,0,0,0,0],"sum_hessian":[2.419115E2,1.702323E2,7.167921E1,4.3098293E1,1.27134E2,3.4445496E1,3.723371E1,7.518761E0,3.5579533E1,1.2914831E1,1.1421917E2,2.3762037E1,1.0683456E1,6.5617943E0,3.0671915E1,1.5173595E0,6.001402E0,2.3241978E1,1.2337556E1,8.892579E0,4.022252E0,2.902448E0,1.1131673E2,5.7462196E0,1.8015818E1,9.311459E0,1.3719976E0,4.6868525E0,1.8749421E0,2.7010803E0,2.7970835E1,1.6804632E1,6.437345E0,9.021902E0,3.3156543E0,5.4496794E0,3.4428992E0,2.3766506E0,1.6456017E0,2.9136868E1,8.2179855E1,1.7078891E0,4.0383306E0,3.7748656E0,1.42409525E1,6.443562E0,2.8678968E0,1.7933882E0,2.893464E0,2.7916415E0,2.5179193E1],"tree_param":{"num_deleted":"0","num_feature":"5","num_nodes":"51","size_leaf_vector":"1"}},{"base_weights":[4.369449E-2,-1.5239976E-1,5.424016E-1,-4.6212015E-1,-4.645424E-2,3.8622802E-1,8.1780785E-1,-6.496061E-1,-6.579865E-2,4.2052394E-1,-1.0017342E-1,9.586631E-2,6.863714E-1,3.3002406E-2,5.225413E-1,1.14544414E-1,-7.124102E-1,8.079706E-2,-4.5167866E-1,3.7964843E-2,1.8062744E-1,6.4489037E-1,-1.3428567E-1,3.6033702E-1,-6.184416E-1,3.26123E-1,9.4911665E-1,-1.445443E-2,6.4530796E-1,9.406886E-4,4.19414E-3,-2.9380526E-2,-1.637629E-2,-7.963931E-3,1.5037522E-2,4.5909565E-3,-2.1202646E-2,-1.1953423E-2,1.206451E-2,2.7966214E-2,-2.0332078E-3,-1.6591225E-2,-2.7041712E-3,1.6056357E-2,-1.459675E-2,-2.7242254E-2,-2.118057E-3,-1.169819E-2,1.5823184E-2,1.1269174E-2,4.065086E-2,2.5004141E-2,4.4033118E-3],"categories":[],"categories_nodes":[],"categories_segments":[],"categories_sizes":[],"default_left":[0,0,0,0,0,0,0,0,0,0,0,0,0,0,0,0,0,0,0,0,0,0,0,0,0,0,0,0,0,0,0,0,0,0,0,0,0,0,0,0,0,0,0,0,0,0,0,0,0,0,0,0,0],"id":11,"left_children":[1,3,5,7,9,11,13,15,17,19,21,23,25,-1,27,29,31,33,35,-1,37,39,41,43,45,47,49,-1,51,-1,-1,-1,-1,-1,-1,-1,-1,-1,-1,-1,-1,-1,-1,-1,-1,-1,-1,-1,-1,-1,-1,-1,-1],"loss_changes":[2.3851984E1,5.728729E0,2.6440487E0,3.2677832E0,3.345545E0,3.9265122E0,1.4260921E0,1.5277205E0,9.0881956E-1,2.5643098E0,3.108726E0,4.841132E0,1.8072119E0,0E0,1.9925654E0,2.2354051E-3,7.093563E-1,1.8835303E0,7.8641427E-1,0E0,1.6864693E0,1.1644001E0,2.0674102E0,2.9962516E0,1.0424283E0,1.7848904E0,2.3793564E0,0E0,1.0577793E0,0E0,0E0,0E0,0E0,0E0,0E0,0E0,0E0,0E0,0E0,0E0,0E0,0E0,0E0,0E0,0E0,0E0,0E0,0E0,0E0,0E0,0E0,0E0,0E0],"parents":[2147483647,0,0,1,1,2,2,3,3,4,4,5,5,6,6,7,7,8,8,9,9,10,10,11,11,12,12,14,14,15,15,16,16,17,17,18,18,20,20,21,21,22,22,23,23,24,24,25,25,26,26,28,28],"right_children":[2,4,6,8,10,12,14,16,18,20,22,24,26,-1,28,30,32,34,36,-1,38,40,42,44,46,48,50,-1,52,-1,-1,-1,-1,-1,-1,-1,-1,-1,-1,-1,-1,-1,-1,-1,-1,-1,-1,-1,-1,-1,-1,-1,-1],"split_conditions":[1.1599907E0,6.268876E-1,1.4E1,8.460457E-1,-1.8265156E0,1.4207436E0,1.4787819E0,3.6315644E-1,2.1E1,7.443699E-1,6.4866036E-1,1.1E1,6E0,3.3002406E-2,1.5045141E0,3.0727014E-1,-1.547011E0,1.6543343E0,1.9204955E0,3.7964843E-2,8.273085E-1,1.6E1,2E0,1.3860104E0,1.2907809E0,1.4919975E0,-2.558704E-1,-1.445443E-2,1.2468201E0,9.406886E-4,4.19414E-3,-2.9380526E-2,-1.637629E-2,-7.963931E-3,1.5037522E-2,4.5909565E-3,-2.1202646E-2,-1.1953423E-2,1.206451E-2,2.7966214E-2,-2.0332078E-3,-1.6591225E-2,-2.7041712E-3,1.6056357E-2,-1.459675E-2,-2.7242254E-2,-2.118057E-3,-1.169819E-2,1.5823184E-2,1.1269174E-2,4.065086E-2,2.5004141E-2,4.4033118E-3],"split_indices":[4,4,0,2,2,4,4,4,0,4,4,0,0,0,4,4,2,2,2,0,4,0,0,4,4,4,2,0,2,0,0,0,0,0,0,0,0,0,0,0,0,0,0,0,0,0,0,0,0,0,0,0,0],"split_type":[0,0,0,0,0,0,0,0,0,0,0,0,0,0,0,0,0,0,0,0,0,0,0,0,0,0,0,0,0,0,0,0,0,0,0,0,0,0,0,0,0,0,0,0,0,0,0,0,0,0,0,0,0],"sum_hessian":[2.4205602E2,1.7423882E2,6.781721E1,4.3553364E1,1.3068546E2,4.480959E1,2.3007614E1,2.9132633E1,1.442073E1,1.2778076E1,1.1790738E2,2.3446556E1,2.1363033E1,1.036911E1,1.2638505E1,2.149947E0,2.6982687E1,1.1023515E1,3.3972142E0,1.8802459E0,1.089783E1,4.378097E0,1.1352928E2,1.7472828E1,5.9737267E0,9.955004E0,1.140803E1,1.0580391E0,1.1580465E1,1.0228347E0,1.1271123E0,8.491188E0,1.8491499E1,6.2472577E0,4.7762575E0,1.1265501E0,2.2706642E0,2.794405E0,8.103425E0,2.9006243E0,1.4774725E0,9.727852E0,1.0380143E2,1.4787415E1,2.6854138E0,3.4776149E0,2.496112E0,1.9789889E0,7.9760146E0,5.5261025E0,5.881927E0,7.919505E0,3.6609607E0],"tree_param":{"num_deleted":"0","num_feature":"5","num_nodes":"53","size_leaf_vector":"1"}},{"base_weights":[3.417109E-2,-7.7260206E-3,2.2635193E-1,2.2200333E-2,-5.3360987E-1,5.267049E-1,7.5419754E-2,-4.379945E-3,6.640361E-1,-2.9317455E-2,-2.1292336E-1,-6.8151325E-2,3.1307176E-2,-2.1039246E-2,1.3202582E-1,1.086208E-1,-7.407383E-2,3.699352E-2,3.1095374E-1,1.8802246E-2,-5.9599596E-1,-4.2060035E-1,2.4672117E-2,1.7920822E-1,-1.3773298E-2,-9.000917E-4,1.6253646E-2,-2.2392364E-2,-6.528651E-4,-1.7771517E-3,1.5040215E-2,-2.5921673E-2,6.2764217E-3,2.3663501E-4,-1.6765619E-2,1.6815196E-3,1.6049668E-2],"categories":[],"categories_nodes":[],"categories_segments":[],"categories_sizes":[],"default_left":[0,0,0,0,0,0,0,0,0,0,0,0,0,0,0,0,0,0,0,0,0,0,0,0,0,0,0,0,0,0,0,0,0,0,0,0,0],"id":12,"left_children":[1,3,5,7,9,11,13,15,17,-1,19,21,-1,-1,23,25,27,-1,29,-1,31,33,-1,35,-1,-1,-1,-1,-1,-1,-1,-1,-1,-1,-1,-1,-1],"loss_changes":[1.9565094E0,3.163907E0,1.9316387E0,3.2522275E0,1.3318262E0,4.49146E0,1.416429E0,1.4561995E0,1.139724E0,0E0,2.805587E0,2.7385292E0,0E0,0E0,8.8849336E-1,4.252727E0,4.004856E0,0E0,4.5365041E-1,0E0,1.4121342E0,3.6713803E-1,0E0,1.1744754E0,0E0,0E0,0E0,0E0,0E0,0E0,0E0,0E0,0E0,0E0,0E0,0E0,0E0],"parents":[2147483647,0,0,1,1,2,2,3,3,4,4,5,5,6,6,7,7,8,8,10,10,11,11,14,14,15,15,16,16,18,18,20,20,21,21,23,23],"right_children":[2,4,6,8,10,12,14,16,18,-1,20,22,-1,-1,24,26,28,-1,30,-1,32,34,-1,36,-1,-1,-1,-1,-1,-1,-1,-1,-1,-1,-1,-1,-1],"split_conditions":[1.7343735E0,1.5722641E0,2.159832E0,1.3982668E0,5E0,8E0,2.211227E0,-7.1898574E-1,1.4450303E0,-2.9317455E-2,1E1,1.9958537E0,3.1307176E-2,-2.1039246E-2,4.516913E0,-1.1025145E0,-6.2164855E-1,3.699352E-2,8E0,1.8802246E-2,2.1E1,3E0,2.4672117E-2,3.323203E0,-1.3773298E-2,-9.000917E-4,1.6253646E-2,-2.2392364E-2,-6.528651E-4,-1.7771517E-3,1.5040215E-2,-2.5921673E-2,6.2764217E-3,2.3663501E-4,-1.6765619E-2,1.6815196E-3,1.6049668E-2],"split_indices":[2,2,2,2,0,0,2,2,2,0,0,2,0,0,2,2,2,0,0,0,0,0,0,2,0,0,0,0,0,0,0,0,0,0,0,0,0],"split_type":[0,0,0,0,0,0,0,0,0,0,0,0,0,0,0,0,0,0,0,0,0,0,0,0,0,0,0,0,0,0,0,0,0,0,0,0,0],"sum_hessian":[2.4177248E2,1.9928615E2,4.2486332E1,1.8946225E2,9.8239E0,1.3376868E1,2.9109463E1,1.8288176E2,6.5804873E0,3.262787E0,6.5611134E0,6.6228557E0,6.754013E0,1.203683E0,2.7905779E1,6.95522E1,1.1332956E2,1.5652527E0,5.0152345E0,1.8562559E0,4.7048573E0,5.1230507E0,1.4998051E0,2.6488407E1,1.4173721E0,5.3395203E1,1.6156996E1,7.2232895E0,1.0610627E2,1.9372523E0,3.0779822E0,3.474944E0,1.2299134E0,1.4797676E0,3.643283E0,2.0536875E1,5.9515324E0],"tree_param":{"num_deleted":"0","num_feature":"5","num_nodes":"37","size_leaf_vector":"1"}},{"base_weights":[-4.897664E-2,-2.4018268E-1,4.432292E-1,-3.8474625E-1,-8.115316E-2,2.1916088E-1,5.7280654E-1,-3.3112952E-1,-7.578073E-1,-3.3172973E-2,-7.0298046E-1,6.955017E-3,5.438467E-1,2.9673925E-1,6.985234E-1,-3.63122E-1,4.4628564E-1,-3.0658389E-2,-1.5819567E-1,1.972563E-1,-9.9777944E-2,-3.1076452E-2,-4.7201238E-4,2.0354742E-1,-4.180434E-1,3.0111687E-2,2.8271726E-1,3.0381313E-2,9.265716E-2,2.5807008E-2,3.8485512E-1,-5.7555134E-3,-1.2615321E-2,8.348035E-4,1.7749986E-2,1.9128945E-2,-1.8838596E-2,2.6247144E-2,-2.4374478E-4,-1.25544425E-2,-4.2947757E-4,-8.598437E-3,1.3662235E-2,-1.9226456E-3,-1.7281821E-2,-2.9941022E-3,2.7596287E-2,-1.4423998E-2,8.573627E-3,-1.4991795E-2,1.6878719E-2],"categories":[],"categories_nodes":[],"categories_segments":[],"categories_sizes":[],"default_left":[0,0,0,0,0,0,0,0,0,0,0,0,0,0,0,0,0,0,0,0,0,0,0,0,0,0,0,0,0,0,0,0,0,0,0,0,0,0,0,0,0,0,0,0,0,0,0,0,0,0,0],"id":13,"left_children":[1,3,5,7,9,11,13,15,17,19,21,23,25,27,29,31,33,-1,35,37,39,-1,-1,41,43,-1,45,-1,47,-1,49,-1,-1,-1,-1,-1,-1,-1,-1,-1,-1,-1,-1,-1,-1,-1,-1,-1,-1,-1,-1],"loss_changes":[2.3594316E1,4.116026E0,1.9119949E0,1.6338425E0,2.5773354E0,1.879459E0,1.3143883E0,2.2553139E0,1.5907674E0,1.277771E0,1.4009063E0,1.5507963E0,1.0120115E0,2.1647267E0,1.1595364E0,7.1929073E-1,2.132057E-1,0E0,2.107676E0,2.612047E0,1.744138E0,0E0,0E0,1.6942792E0,2.9171526E-1,0E0,2.1085143E0,0E0,1.5915006E0,0E0,2.1376877E0,0E0,0E0,0E0,0E0,0E0,0E0,0E0,0E0,0E0,0E0,0E0,0E0,0E0,0E0,0E0,0E0,0E0,0E0,0E0,0E0],"parents":[2147483647,0,0,1,1,2,2,3,3,4,4,5,5,6,6,7,7,8,8,9,9,10,10,11,11,12,12,13,13,14,14,15,15,16,16,18,18,19,19,20,20,23,23,24,24,26,26,28,28,30,30],"right_children":[2,4,6,8,10,12,14,16,18,20,22,24,26,28,30,32,34,-1,36,38,40,-1,-1,42,44,-1,46,-1,48,-1,50,-1,-1,-1,-1,-1,-1,-1,-1,-1,-1,-1,-1,-1,-1,-1,-1,-1,-1,-1,-1],"split_conditions":[1.1529098E0,7.9080045E-1,8E0,7.652994E-1,1.1368966E0,1.4919975E0,1.3343127E0,7.5196683E-1,1.2E1,8.690558E-1,1.1469858E0,1.3860104E0,1E0,1E1,1.8493406E0,6E0,1E0,-3.0658389E-2,1.6E1,5E0,9.052569E-1,-3.1076452E-2,-4.7201238E-4,1.2199365E0,4E0,3.0111687E-2,1.8749096E0,3.0381313E-2,1.2E1,2.5807008E-2,1.9038184E0,-5.7555134E-3,-1.2615321E-2,8.348035E-4,1.7749986E-2,1.9128945E-2,-1.8838596E-2,2.6247144E-2,-2.4374478E-4,-1.25544425E-2,-4.2947757E-4,-8.598437E-3,1.3662235E-2,-1.9226456E-3,-1.7281821E-2,-2.9941022E-3,2.7596287E-2,-1.4423998E-2,8.573627E-3,-1.4991795E-2,1.6878719E-2],"split_indices":[4,4,0,4,4,4,4,4,0,4,4,4,3,0,4,0,3,0,0,0,4,0,0,4,0,0,4,0,0,0,4,0,0,0,0,0,0,0,0,0,0,0,0,0,0,0,0,0,0,0,0],"split_type":[0,0,0,0,0,0,0,0,0,0,0,0,0,0,0,0,0,0,0,0,0,0,0,0,0,0,0,0,0,0,0,0,0,0,0,0,0,0,0,0,0,0,0,0,0,0,0,0,0,0,0],"sum_hessian":[2.4857156E2,1.7939459E2,6.917697E1,9.322781E1,8.616678E1,2.6332872E1,4.2844097E1,8.3163124E1,1.0064692E1,8.0972305E1,5.1944747E0,1.654254E1,9.790334E0,1.4457222E1,2.8386873E1,8.0387886E1,2.7752411E0,6.497907E0,3.5667844E0,1.7716835E1,6.3255466E1,3.1576307E0,2.0368438E0,1.1666845E1,4.875694E0,2.5158632E0,7.2744703E0,2.327943E0,1.2129279E1,1.758072E1,1.0806152E1,2.1265598E1,5.9122284E1,1.022762E0,1.7524792E0,1.1912675E0,2.375517E0,3.3624918E0,1.4354344E1,1.2551594E1,5.0703873E1,3.9131734E0,7.7536716E0,1.9386772E0,2.9370162E0,5.0725245E0,2.201946E0,2.6805332E0,9.448746E0,1.50519E0,9.300962E0],"tree_param":{"num_deleted":"0","num_feature":"5","num_nodes":"51","size_leaf_vector":"1"}},{"base_weights":[-6.165358E-3,-1.6061836E-1,3.8076037E-1,-2.9814914E-1,2.4940364E-2,4.6591718E-2,5.3744316E-1,-4.4365504E-1,-1.9235793E-1,1.3411665E-1,-4.5061356E-1,9.5142466E-1,-1.4260878E-1,4.150666E-1,1.0069298E0,-8.480217E-1,-2.88674E-1,4.1096008E-1,-3.2245493E-1,7.443706E-1,6.243455E-2,-8.0146533E-1,-1.082339E-1,-1.1808847E-3,3.8414575E-2,-2.7708184E-2,-1.6688962E-2,3.468044E-2,3.170801E-1,3.425738E-2,1.9752868E-3,-2.8656203E-2,3.219872E-3,1.7905537E-3,-1.2164794E-2,5.3096986E-3,3.0274957E-2,1.7790915E-2,-1.2483959E-2,1.0030686E-2,2.8336598E-2,-1.9394805E-3,6.5234415E-3,-1.1751109E-2,-2.9034132E-2,-7.544758E-3,7.580653E-3,7.59671E-3,-1.3716247E-2,1.4165463E-3,1.4846597E-2],"categories":[],"categories_nodes":[],"categories_segments":[],"categories_sizes":[],"default_left":[0,0,0,0,0,0,0,0,0,0,0,0,0,0,0,0,0,0,0,0,0,0,0,0,0,0,0,0,0,0,0,0,0,0,0,0,0,0,0,0,0,0,0,0,0,0,0,0,0,0,0],"id":14,"left_children":[1,3,5,7,9,11,13,15,17,19,21,23,25,27,29,31,33,35,37,39,41,43,45,-1,-1,-1,47,-1,49,-1,-1,-1,-1,-1,-1,-1,-1,-1,-1,-1,-1,-1,-1,-1,-1,-1,-1,-1,-1,-1,-1],"loss_changes":[1.4716851E1,4.4982934E0,3.6537275E0,1.4715862E0,3.9974825E0,4.162649E0,2.324829E0,2.3756485E0,4.8677735E0,2.6850262E0,1.6415823E0,1.4191856E0,1.9833474E0,2.5062823E0,1.0896025E0,1.236031E0,1.3160446E0,1.3807387E0,4.5509276E0,2.1539974E-1,1.1363578E0,9.4605446E-2,4.998335E-1,0E0,0E0,0E0,2.3179395E0,0E0,1.7196422E0,0E0,0E0,0E0,0E0,0E0,0E0,0E0,0E0,0E0,0E0,0E0,0E0,0E0,0E0,0E0,0E0,0E0,0E0,0E0,0E0,0E0,0E0],"parents":[2147483647,0,0,1,1,2,2,3,3,4,4,5,5,6,6,7,7,8,8,9,9,10,10,11,11,12,12,13,13,14,14,15,15,16,16,17,17,18,18,19,19,20,20,21,21,22,22,26,26,28,28],"right_children":[2,4,6,8,10,12,14,16,18,20,22,24,26,28,30,32,34,36,38,40,42,44,46,-1,-1,-1,48,-1,50,-1,-1,-1,-1,-1,-1,-1,-1,-1,-1,-1,-1,-1,-1,-1,-1,-1,-1,-1,-1,-1,-1],"split_conditions":[1.1509497E0,8.221226E-1,-4.4866273E-1,6.188815E-1,1.0883214E0,-2.1932478E0,1.8749096E0,-1.0159173E0,6.699739E-1,8.5186094E-1,1E0,1.2907809E0,-1.9635739E0,1.191273E0,2.5366626E0,5.9894663E-1,2.8839761E-2,6.6112953E-1,-1.8265156E0,-1.8185636E-1,9.7194666E-1,-6.372217E-1,1.6232425E0,-1.1808847E-3,3.8414575E-2,-2.7708184E-2,-8.8872117E-1,3.468044E-2,1.3520557E0,3.425738E-2,1.9752868E-3,-2.8656203E-2,3.219872E-3,1.7905537E-3,-1.2164794E-2,5.3096986E-3,3.0274957E-2,1.7790915E-2,-1.2483959E-2,1.0030686E-2,2.8336598E-2,-1.9394805E-3,6.5234415E-3,-1.1751109E-2,-2.9034132E-2,-7.544758E-3,7.580653E-3,7.59671E-3,-1.3716247E-2,1.4165463E-3,1.4846597E-2],"split_indices":[4,4,2,4,4,2,4,2,4,4,3,4,2,4,2,4,2,4,2,2,4,2,2,0,0,0,2,0,4,0,0,0,0,0,0,0,0,0,0,0,0,0,0,0,0,0,0,0,0,0,0],"split_type":[0,0,0,0,0,0,0,0,0,0,0,0,0,0,0,0,0,0,0,0,0,0,0,0,0,0,0,0,0,0,0,0,0,0,0,0,0,0,0,0,0,0,0,0,0,0,0,0,0,0,0],"sum_hessian":[2.4423499E2,1.7497383E2,6.926116E1,1.00143555E2,7.483027E1,2.2522717E1,4.6738445E1,4.081401E1,5.9329544E1,6.1442467E1,1.3387804E1,3.1983347E0,1.9324383E1,3.8569096E1,8.169352E0,1.00695095E1,3.0744501E1,1.0141233E1,4.9188313E1,5.472121E0,5.597035E1,5.9498544E0,7.437949E0,1.0168942E0,2.1814404E0,1.8035122E0,1.752087E1,3.243665E0,3.5325428E1,6.957954E0,1.2113974E0,9.053866E0,1.0156434E0,7.843617E0,2.2900885E1,8.221505E0,1.9197283E0,4.07116E0,4.511715E1,2.671207E0,2.8009138E0,3.1076231E1,2.4894117E1,2.6865718E0,3.2632828E0,5.5415735E0,1.8963759E0,1.1127846E1,6.393025E0,1.4533336E1,2.0792095E1],"tree_param":{"num_deleted":"0","num_feature":"5","num_nodes":"51","size_leaf_vector":"1"}},{"base_weights":[-6.968579E-3,-1.609884E-1,3.3135417E-1,-2.6366305E-1,-4.783466E-2,8.711181E-2,5.016404E-1,-2.8543153E-1,1.2912494E-2,2.6005084E-2,-4.1983458E-1,5.3080656E-3,3.207946E-2,2.1245307E-1,6.7465025E-1,-2.56509E-1,-2.8198471E-2,2.3606458E-1,-1.2217741E-1,-6.7758083E-1,1.15726896E-1,2.7786965E-2,-5.6254797E-2,3.42918E-2,-6.765271E-2,1.0086906E0,3.4679112E-1,-5.135786E-3,-1.4048069E-2,2.923187E-2,2.4024306E-3,-1.1032561E-2,5.463544E-3,-1.2231795E-2,-3.0156411E-2,1.0615689E-2,-1.2870569E-2,5.5344966E-3,-6.6806837E-3,-1.11054005E-2,6.4976104E-3,1.6369782E-2,3.7996132E-2,3.1122768E-3,2.481528E-2],"categories":[],"categories_nodes":[],"categories_segments":[],"categories_sizes":[],"default_left":[0,0,0,0,0,0,0,0,0,0,0,0,0,0,0,0,0,0,0,0,0,0,0,0,0,0,0,0,0,0,0,0,0,0,0,0,0,0,0,0,0,0,0,0,0],"id":15,"left_children":[1,3,5,7,9,11,13,15,-1,17,19,21,-1,23,25,27,-1,29,31,33,35,-1,37,-1,39,41,43,-1,-1,-1,-1,-1,-1,-1,-1,-1,-1,-1,-1,-1,-1,-1,-1,-1,-1],"loss_changes":[1.2916855E1,1.9660301E0,3.1817951E0,1.4685688E0,2.2699497E0,2.6512942E0,2.1323442E0,1.4050674E0,0E0,2.194111E0,1.9666593E0,1.8397417E0,0E0,4.895871E0,2.7165813E0,1.4492569E0,0E0,3.2750223E0,3.164235E0,4.1951704E-1,8.3912754E-1,0E0,1.2630477E0,0E0,1.3831658E0,9.021511E-1,1.7419102E0,0E0,0E0,0E0,0E0,0E0,0E0,0E0,0E0,0E0,0E0,0E0,0E0,0E0,0E0,0E0,0E0,0E0,0E0],"parents":[2147483647,0,0,1,1,2,2,3,3,4,4,5,5,6,6,7,7,9,9,10,10,11,11,13,13,14,14,15,15,17,17,18,18,19,19,20,20,22,22,24,24,25,25,26,26],"right_children":[2,4,6,8,10,12,14,16,-1,18,20,22,-1,24,26,28,-1,30,32,34,36,-1,38,-1,40,42,44,-1,-1,-1,-1,-1,-1,-1,-1,-1,-1,-1,-1,-1,-1,-1,-1,-1,-1],"split_conditions":[1.1469858E0,7.9080045E-1,-7.27136E-2,3.323203E0,1.0783743E0,2.4476225E0,1.3520557E0,7.8488123E-1,1.2912494E-2,1E0,7.3673826E-1,-3.0353398E0,3.207946E-2,1.191273E0,1.1917069E0,1.2165102E0,-2.8198471E-2,8.561218E-1,1.0486693E0,1.9344959E-1,2.159832E0,2.7786965E-2,1.3570502E0,3.42918E-2,1.0486693E0,4.645848E-1,2.374821E0,-5.135786E-3,-1.4048069E-2,2.923187E-2,2.4024306E-3,-1.1032561E-2,5.463544E-3,-1.2231795E-2,-3.0156411E-2,1.0615689E-2,-1.2870569E-2,5.5344966E-3,-6.6806837E-3,-1.11054005E-2,6.4976104E-3,1.6369782E-2,3.7996132E-2,3.1122768E-3,2.481528E-2],"split_indices":[4,4,2,2,4,4,4,4,0,3,2,2,0,4,2,2,0,4,2,2,2,0,4,0,2,2,2,0,0,0,0,0,0,0,0,0,0,0,0,0,0,0,0,0,0],"split_type":[0,0,0,0,0,0,0,0,0,0,0,0,0,0,0,0,0,0,0,0,0,0,0,0,0,0,0,0,0,0,0,0,0,0,0,0,0,0,0,0,0,0,0,0,0],"sum_hessian":[2.4586052E2,1.6930801E2,7.6552505E1,8.806684E1,8.124117E1,3.2068314E1,4.448419E1,8.595965E1,2.107196E0,6.85621E1,1.267907E1,3.0530922E1,1.5373925E0,1.7485325E1,2.6998869E1,8.3654915E1,2.3047276E0,2.8114574E1,4.044753E1,8.3806095E0,4.298461E0,1.0329926E0,2.949793E1,3.332571E0,1.4152754E1,1.2344766E1,1.4654102E1,6.0919456E1,2.2735462E1,3.988528E0,2.4126045E1,2.2268066E1,1.817946E1,5.8262715E0,2.554338E0,3.2348173E0,1.0636438E0,1.2013157E1,1.7484774E1,6.7093663E0,7.443388E0,5.530156E0,6.8146095E0,1.053827E1,4.1158323E0],"tree_param":{"num_deleted":"0","num_feature":"5","num_nodes":"45","size_leaf_vector":"1"}},{"base_weights":[-2.48418E-2,-1.7145395E-1,3.4393072E-1,-4.146608E-1,-9.389683E-2,7.8324825E-2,4.6787283E-1,-2.4012262E-1,-6.9969195E-1,4.9243137E-1,-1.2095754E-1,-2.1517155E-1,4.1063443E-1,7.800454E-1,3.5701135E-1,-3.5466334E-1,2.3712901E-2,-2.461739E-2,-3.140333E-1,-6.7981924E-3,2.4858724E-2,-2.1608396E-1,9.459797E-3,1.2695305E-1,-4.9276495E-1,2.301198E-2,1.484852E-1,4.2535263E-1,9.533749E-1,-2.9325846E-1,4.913796E-1,-2.081811E-2,-2.707651E-3,-4.515751E-4,-1.4014759E-2,-4.5465417E-3,-2.223489E-2,2.2822237E-3,-6.5324414E-3,-9.361116E-3,1.1907225E-2,-7.3192255E-3,-2.3737678E-2,1.1506802E-2,-1.4832442E-2,1.2928016E-3,2.0030078E-2,3.6256425E-2,8.100589E-3,-3.265538E-2,2.2605455E-3,1.0841651E-2,2.145598E-2],"categories":[],"categories_nodes":[],"categories_segments":[],"categories_sizes":[],"default_left":[0,0,0,0,0,0,0,0,0,0,0,0,0,0,0,0,0,0,0,0,0,0,0,0,0,0,0,0,0,0,0,0,0,0,0,0,0,0,0,0,0,0,0,0,0,0,0,0,0,0,0,0,0],"id":16,"left_children":[1,3,5,7,9,11,13,15,17,19,21,23,25,27,29,31,-1,-1,33,-1,-1,35,37,39,41,-1,43,45,47,49,51,-1,-1,-1,-1,-1,-1,-1,-1,-1,-1,-1,-1,-1,-1,-1,-1,-1,-1,-1,-1,-1,-1],"loss_changes":[1.3175289E1,3.2478728E0,2.24615E0,1.9134479E0,2.176344E0,2.3573587E0,1.3508539E0,3.523119E0,4.5876694E-1,1.6582257E0,1.5941162E0,1.2981126E0,9.377055E-1,3.0111504E-1,3.340825E0,2.2171924E0,0E0,0E0,2.3503447E-1,0E0,0E0,2.4034956E0,8.5026073E-1,9.0868413E-1,3.5553157E-1,0E0,1.3571135E0,4.8796058E-1,8.795295E-1,2.102202E0,6.3457775E-1,0E0,0E0,0E0,0E0,0E0,0E0,0E0,0E0,0E0,0E0,0E0,0E0,0E0,0E0,0E0,0E0,0E0,0E0,0E0,0E0,0E0,0E0],"parents":[2147483647,0,0,1,1,2,2,3,3,4,4,5,5,6,6,7,7,8,8,9,9,10,10,11,11,12,12,13,13,14,14,15,15,18,18,21,21,22,22,23,23,24,24,26,26,27,27,28,28,29,29,30,30],"right_children":[2,4,6,8,10,12,14,16,18,20,22,24,26,28,30,32,-1,-1,34,-1,-1,36,38,40,42,-1,44,46,48,50,52,-1,-1,-1,-1,-1,-1,-1,-1,-1,-1,-1,-1,-1,-1,-1,-1,-1,-1,-1,-1,-1,-1],"split_conditions":[1.1599907E0,6.22164E-1,7E0,5.6501234E-1,6.4866036E-1,1.4207436E0,1.1E1,5.468609E-1,1E0,1E0,1.2E1,1.3152746E0,1.6086984E0,9E0,1.2E1,1E0,2.3712901E-2,-2.461739E-2,5.881495E-1,-6.7981924E-3,2.4858724E-2,1.1E1,2.2E1,1.2128607E0,5E0,2.301198E-2,5E0,1.3183761E0,1.5831658E0,1.2465441E0,1.6705515E0,-2.081811E-2,-2.707651E-3,-4.515751E-4,-1.4014759E-2,-4.5465417E-3,-2.223489E-2,2.2822237E-3,-6.5324414E-3,-9.361116E-3,1.1907225E-2,-7.3192255E-3,-2.3737678E-2,1.1506802E-2,-1.4832442E-2,1.2928016E-3,2.0030078E-2,3.6256425E-2,8.100589E-3,-3.265538E-2,2.2605455E-3,1.0841651E-2,2.145598E-2],"split_indices":[4,4,0,4,4,4,0,4,1,3,0,4,4,0,0,3,0,0,4,0,0,0,0,4,0,0,0,4,4,4,4,0,0,0,0,0,0,0,0,0,0,0,0,0,0,0,0,0,0,0,0,0,0],"split_type":[0,0,0,0,0,0,0,0,0,0,0,0,0,0,0,0,0,0,0,0,0,0,0,0,0,0,0,0,0,0,0,0,0,0,0,0,0,0,0,0,0,0,0,0,0,0,0,0,0,0,0,0,0],"sum_hessian":[2.4159592E2,1.7325166E2,6.8344246E1,4.0839367E1,1.324123E2,2.2264261E1,4.6079987E1,2.647184E1,1.4367527E1,5.0829096E0,1.2732939E2,1.2009738E1,1.0254523E1,1.0493983E1,3.5586006E1,2.4414179E1,2.057661E0,1.0080103E1,4.2874236E0,1.723248E0,3.3596618E0,7.3246506E1,5.4082882E1,5.622661E0,6.387077E0,3.5295277E0,6.724995E0,4.5785933E0,5.91539E0,5.891555E0,2.969445E1,9.981718E0,1.4432462E1,1.8241093E0,2.4633143E0,6.637732E1,6.869191E0,4.2335773E1,1.1747108E1,2.0816572E0,3.5410042E0,4.474752E0,1.9123245E0,5.219784E0,1.5052114E0,2.2333224E0,2.345271E0,3.747487E0,2.167903E0,1.247382E0,4.6441727E0,2.0438635E1,9.255815E0],"tree_param":{"num_deleted":"0","num_feature":"5","num_nodes":"53","size_leaf_vector":"1"}},{"base_weights":[3.2833256E-2,-1.7686717E-1,2.8150615E-1,-2.7968287E-1,1.208236E-2,1.3702716E-1,4.9024498E-1,-1.5508936E-1,-4.3028265E-1,2.8919902E-2,-6.702614E-2,-5.2917516E-1,1.8501875E-1,1.0708926E-2,7.1814287E-1,-3.4394845E-1,2.0311828E-1,-1.957746E-1,-5.5433816E-1,-4.0434393E-1,1.953531E-2,5.23595E-3,-2.4753958E-2,2.9249394E-2,1.2504306E-1,5.358158E-1,-3.4828696E-1,5.0248986E-1,1.2450634E0,-2.2680223E-2,-3.444164E-3,1.2689009E-2,-1.7508224E-2,-1.19539425E-2,1.7662182E-2,-2.2460781E-2,-1.073298E-2,-3.901479E-3,-1.882424E-2,1.6660545E-2,-3.7169366E-3,-2.4610983E-2,5.0619687E-3,2.1029945E-2,5.781087E-5,-2.4439987E-2,5.132771E-4,2.3023074E-2,6.1873305E-3,3.9800428E-2,1.0458888E-2],"categories":[],"categories_nodes":[],"categories_segments":[],"categories_sizes":[],"default_left":[0,0,0,0,0,0,0,0,0,0,0,0,0,0,0,0,0,0,0,0,0,0,0,0,0,0,0,0,0,0,0,0,0,0,0,0,0,0,0,0,0,0,0,0,0,0,0,0,0,0,0],"id":17,"left_children":[1,3,5,7,9,11,13,15,17,-1,19,21,23,25,27,29,31,33,35,37,39,-1,-1,-1,41,43,45,47,49,-1,-1,-1,-1,-1,-1,-1,-1,-1,-1,-1,-1,-1,-1,-1,-1,-1,-1,-1,-1,-1,-1],"loss_changes":[1.2620962E1,2.5560632E0,3.270565E0,1.5307455E0,3.6236923E0,2.2333918E0,4.897216E0,3.3275545E0,9.9644375E-1,0E0,1.3093185E0,1.1327124E0,2.8650522E0,3.1035736E0,2.8296967E0,2.9253929E0,3.2308831E0,2.5700088E0,6.603241E-1,4.782914E-1,2.8680577E0,0E0,0E0,0E0,2.6060684E0,5.874983E-1,1.6833954E0,1.666892E0,1.3407993E-1,0E0,0E0,0E0,0E0,0E0,0E0,0E0,0E0,0E0,0E0,0E0,0E0,0E0,0E0,0E0,0E0,0E0,0E0,0E0,0E0,0E0,0E0],"parents":[2147483647,0,0,1,1,2,2,3,3,4,4,5,5,6,6,7,7,8,8,10,10,11,11,12,12,13,13,14,14,15,15,16,16,17,17,18,18,19,19,20,20,24,24,25,25,26,26,27,27,28,28],"right_children":[2,4,6,8,10,12,14,16,18,-1,20,22,24,26,28,30,32,34,36,38,40,-1,-1,-1,42,44,46,48,50,-1,-1,-1,-1,-1,-1,-1,-1,-1,-1,-1,-1,-1,-1,-1,-1,-1,-1,-1,-1,-1,-1],"split_conditions":[9.451317E-1,8.15949E-1,1.3343127E0,-3.8228002E-1,9.373217E-1,-2.397171E0,-4.4866273E-1,-1.0159173E0,6.8539745E-1,2.8919902E-2,5.246E-1,1.0141907E0,-1.5814263E0,-1.5814263E0,1E0,6.078591E-1,8.690558E-1,6.423922E-1,1.2404664E-1,1.8140075E0,6.4866036E-1,5.23595E-3,-2.4753958E-2,2.9249394E-2,-1.4467651E0,1.9285454E0,1.5240012E0,1.1917069E0,2.2573547E0,-2.2680223E-2,-3.444164E-3,1.2689009E-2,-1.7508224E-2,-1.19539425E-2,1.7662182E-2,-2.2460781E-2,-1.073298E-2,-3.901479E-3,-1.882424E-2,1.6660545E-2,-3.7169366E-3,-2.4610983E-2,5.0619687E-3,2.1029945E-2,5.781087E-5,-2.4439987E-2,5.132771E-4,2.3023074E-2,6.1873305E-3,3.9800428E-2,1.0458888E-2],"split_indices":[4,2,4,2,2,2,2,2,4,0,4,4,2,2,1,4,4,4,2,2,4,0,0,0,2,4,4,2,4,0,0,0,0,0,0,0,0,0,0,0,0,0,0,0,0,0,0,0,0,0,0],"split_type":[0,0,0,0,0,0,0,0,0,0,0,0,0,0,0,0,0,0,0,0,0,0,0,0,0,0,0,0,0,0,0,0,0,0,0,0,0,0,0,0,0,0,0,0,0,0,0,0,0,0,0],"sum_hessian":[2.4007271E2,1.3039891E2,1.09673805E2,8.413641E1,4.6262493E1,6.5792114E1,4.3881687E1,4.7154545E1,3.698187E1,2.6913738E0,4.357112E1,3.747279E0,6.2044838E1,1.4473647E1,2.940804E1,3.0901855E1,1.625269E1,1.3686929E1,2.3294937E1,8.148067E0,3.5423054E1,1.2308718E0,2.5164073E0,3.3016307E0,5.8743206E1,5.6771226E0,8.796524E0,2.2253836E1,7.1542025E0,1.0221552E1,2.0680304E1,1.3064278E1,3.188412E0,1.1267818E1,2.419111E0,1.0301203E1,1.2993735E1,4.365005E0,3.7830627E0,6.8736515E0,2.85494E1,1.8094959E0,5.6933712E1,4.096639E0,1.5804833E0,3.3241498E0,5.4723744E0,1.0907878E1,1.1345958E1,6.117288E0,1.0369147E0],"tree_param":{"num_deleted":"0","num_feature":"5","num_nodes":"51","size_leaf_vector":"1"}},{"base_weights":[4.334876E-3,-1.4472583E-1,3.9846948E-1,1.6825877E-1,-1.8082029E-1,7.6737314E-2,6.3603526E-1,-1.5464957E-1,7.3694175E-1,-5.9537286E-1,-1.4476441E-1,1.9053102E-2,2.600443E-2,3.8573495E-1,7.679127E-1,1.0985006E-1,-2.8858809E-2,-2.9793896E-3,9.9742424E-1,-6.9136155E-1,-1.1465764E-1,-2.572909E-1,-5.3423654E-2,2.9199004E-1,-1.4096737E-1,3.4805465E-2,1.813399E-1,1.0436935E0,4.7640815E-1,-9.060063E-3,2.7117427E-2,1.2387188E-2,3.8730603E-2,-2.9359063E-2,-1.3404924E-2,5.814992E-3,-1.1784559E-2,6.1947404E-4,-1.1563078E-2,-7.2452407E-3,7.3910225E-3,-1.1632639E-2,1.450214E-2,-2.3819024E-2,3.51131E-3,1.1747834E-2,-7.4707074E-3,1.995092E-2,3.7989337E-2,-5.8257077E-3,2.0258693E-2],"categories":[],"categories_nodes":[],"categories_segments":[],"categories_sizes":[],"default_left":[0,0,0,0,0,0,0,0,0,0,0,0,0,0,0,0,0,0,0,0,0,0,0,0,0,0,0,0,0,0,0,0,0,0,0,0,0,0,0,0,0,0,0,0,0,0,0,0,0,0,0],"id":18,"left_children":[1,3,5,7,9,11,13,15,17,19,21,23,-1,25,27,29,-1,-1,31,33,35,37,39,41,43,-1,45,47,49,-1,-1,-1,-1,-1,-1,-1,-1,-1,-1,-1,-1,-1,-1,-1,-1,-1,-1,-1,-1,-1,-1],"loss_changes":[1.4522206E1,2.0568392E0,5.1355085E0,3.614982E0,2.3249354E0,1.3483598E0,9.872036E-1,2.8788235E0,1.6409342E0,5.014968E-1,1.5251637E0,1.3048084E0,0E0,2.2314138E0,1.4687405E0,3.765602E0,0E0,0E0,4.0869474E-1,2.8573513E-1,3.5877445E-1,2.3878865E0,4.7905164E0,1.6211655E0,3.2795124E0,0E0,1.3091191E0,1.4637852E-1,1.9620817E0,0E0,0E0,0E0,0E0,0E0,0E0,0E0,0E0,0E0,0E0,0E0,0E0,0E0,0E0,0E0,0E0,0E0,0E0,0E0,0E0,0E0,0E0],"parents":[2147483647,0,0,1,1,2,2,3,3,4,4,5,5,6,6,7,7,8,8,9,9,10,10,11,11,13,13,14,14,15,15,18,18,19,19,20,20,21,21,22,22,23,23,24,24,26,26,27,27,28,28],"right_children":[2,4,6,8,10,12,14,16,18,20,22,24,-1,26,28,30,-1,-1,32,34,36,38,40,42,44,-1,46,48,50,-1,-1,-1,-1,-1,-1,-1,-1,-1,-1,-1,-1,-1,-1,-1,-1,-1,-1,-1,-1,-1,-1],"split_conditions":[1.1599907E0,-1.8265156E0,-7.27136E-2,-2.397171E0,-1.4467651E0,2.5277603E0,1.3427266E0,1.0141907E0,5.9894663E-1,9.61737E-1,7.5017506E-1,1.3570502E0,2.600443E-2,1.191273E0,1.1917069E0,8.273085E-1,-2.8858809E-2,-2.9793896E-3,-2.1260087E0,-1.673729E0,-1.5984893E0,2.8839761E-2,8.2949203E-1,1.1867259E0,1.448368E0,3.4805465E-2,1E0,4.645848E-1,1.3982668E0,-9.060063E-3,2.7117427E-2,1.2387188E-2,3.8730603E-2,-2.9359063E-2,-1.3404924E-2,5.814992E-3,-1.1784559E-2,6.1947404E-4,-1.1563078E-2,-7.2452407E-3,7.3910225E-3,-1.1632639E-2,1.450214E-2,-2.3819024E-2,3.51131E-3,1.1747834E-2,-7.4707074E-3,1.995092E-2,3.7989337E-2,-5.8257077E-3,2.0258693E-2],"split_indices":[4,2,2,2,2,4,4,4,4,4,4,4,0,4,2,4,0,0,2,2,2,2,2,4,4,0,1,2,2,0,0,0,0,0,0,0,0,0,0,0,0,0,0,0,0,0,0,0,0,0,0],"split_type":[0,0,0,0,0,0,0,0,0,0,0,0,0,0,0,0,0,0,0,0,0,0,0,0,0,0,0,0,0,0,0,0,0,0,0,0,0,0,0,0,0,0,0,0,0,0,0,0,0,0,0],"sum_hessian":[2.4520493E2,1.7837627E2,6.682865E1,1.806533E1,1.6031094E2,2.8947908E1,3.788075E1,1.1986971E1,6.0783596E0,1.158619E1,1.4872475E2,2.7932636E1,1.0152707E0,1.4425817E1,2.345493E1,9.679577E0,2.307394E0,1.5906051E0,4.4877543E0,9.292484E0,2.2937067E0,6.582068E1,8.2904076E1,1.0019055E1,1.7913582E1,2.0358517E0,1.2389965E1,1.0726575E1,1.2728355E1,6.781787E0,2.8977904E0,2.3050408E0,2.1827135E0,2.8924022E0,6.4000816E0,1.2313058E0,1.0624007E0,2.1035221E1,4.4785458E1,5.1062588E1,3.1841482E1,1.9760492E0,8.043006E0,4.4850664E0,1.3428515E1,8.384025E0,4.0059404E0,5.447663E0,5.2789116E0,2.9168324E0,9.811523E0],"tree_param":{"num_deleted":"0","num_feature":"5","num_nodes":"51","size_leaf_vector":"1"}},{"base_weights":[-3.2797083E-2,-1.8405162E-1,3.6359963E-1,-3.139913E-1,-4.574623E-2,1.9770205E-1,5.506156E-1,3.8232505E-1,-3.3829322E-1,-1.5819006E-1,1.9862106E-1,2.086823E-2,5.766895E-1,9.962828E-1,4.200285E-1,2.5256542E-2,-1.0847452E-2,-3.2627456E-2,-2.859946E-1,5.8475368E-2,-3.3275682E-1,3.3757348E-2,1.9040933E-2,1.52909E-1,-3.367561E-1,8.1071395E-1,-2.9823837E-1,4.618264E-1,3.7635643E-2,-1.7398869E-1,5.0498503E-1,-7.4574593E-3,-2.805676E-2,5.0391434E-3,-1.865838E-2,-1.95389E-2,-3.0625837E-3,7.206514E-3,-1.8799648E-2,-3.0512852E-3,2.0054424E-2,-2.8940346E-2,8.981853E-3,2.770244E-2,-2.363574E-3,-1.5277222E-2,1.0355866E-3,-2.1259533E-3,2.0728087E-2,-1.8036619E-2,1.407044E-2,1.9552957E-2,4.371617E-3],"categories":[],"categories_nodes":[],"categories_segments":[],"categories_sizes":[],"default_left":[0,0,0,0,0,0,0,0,0,0,0,0,0,0,0,0,0,0,0,0,0,0,0,0,0,0,0,0,0,0,0,0,0,0,0,0,0,0,0,0,0,0,0,0,0,0,0,0,0,0,0,0,0],"id":19,"left_children":[1,3,5,7,9,11,13,15,17,19,21,23,25,27,29,-1,-1,-1,31,33,35,-1,37,39,41,43,45,47,-1,49,51,-1,-1,-1,-1,-1,-1,-1,-1,-1,-1,-1,-1,-1,-1,-1,-1,-1,-1,-1,-1,-1,-1],"loss_changes":[1.4774902E1,3.18853E0,2.0035934E0,1.6814013E0,2.4357777E0,2.510594E0,1.4116621E0,1.5223465E0,3.1827335E0,2.3071198E0,4.64094E0,1.3124458E0,2.6861346E0,3.0356598E-1,1.4024472E0,0E0,0E0,0E0,1.8247561E0,2.178522E0,2.4057212E0,0E0,3.6476126E0,2.7184532E0,3.2898889E0,1.0439062E0,2.4579486E-1,4.9646133E-1,0E0,1.3816905E0,1.1203055E0,0E0,0E0,0E0,0E0,0E0,0E0,0E0,0E0,0E0,0E0,0E0,0E0,0E0,0E0,0E0,0E0,0E0,0E0,0E0,0E0,0E0,0E0],"parents":[2147483647,0,0,1,1,2,2,3,3,4,4,5,5,6,6,7,7,8,8,9,9,10,10,11,11,12,12,13,13,14,14,18,18,19,19,20,20,22,22,23,23,24,24,25,25,26,26,27,27,29,29,30,30],"right_children":[2,4,6,8,10,12,14,16,18,20,22,24,26,28,30,-1,-1,-1,32,34,36,-1,38,40,42,44,46,48,-1,50,52,-1,-1,-1,-1,-1,-1,-1,-1,-1,-1,-1,-1,-1,-1,-1,-1,-1,-1,-1,-1,-1,-1],"split_conditions":[1.1753567E0,7.9080045E-1,1.4919975E0,3.6315644E-1,8.2949203E-1,1.4E1,1.5831658E0,2.1E1,4.1262782E-1,-6.5107626E-1,8.363499E-1,1.1E1,1.4207436E0,1.5240012E0,1.641294E0,2.5256542E-2,-1.0847452E-2,-3.2627456E-2,7.8488123E-1,1.1284301E0,-1.4169773E-1,3.3757348E-2,2.7579436E0,7E0,1.2907809E0,2.3E1,7.909897E-2,-3.8228002E-1,3.7635643E-2,8.2949203E-1,1.1802683E0,-7.4574593E-3,-2.805676E-2,5.0391434E-3,-1.865838E-2,-1.95389E-2,-3.0625837E-3,7.206514E-3,-1.8799648E-2,-3.0512852E-3,2.0054424E-2,-2.8940346E-2,8.981853E-3,2.770244E-2,-2.363574E-3,-1.5277222E-2,1.0355866E-3,-2.1259533E-3,2.0728087E-2,-1.8036619E-2,1.407044E-2,1.9552957E-2,4.371617E-3],"split_indices":[4,4,4,4,2,0,4,0,4,2,4,0,4,4,4,0,0,0,4,4,2,0,2,0,4,0,2,2,0,2,2,0,0,0,0,0,0,0,0,0,0,0,0,0,0,0,0,0,0,0,0,0,0],"split_type":[0,0,0,0,0,0,0,0,0,0,0,0,0,0,0,0,0,0,0,0,0,0,0,0,0,0,0,0,0,0,0,0,0,0,0,0,0,0,0,0,0,0,0,0,0,0,0,0,0,0,0,0,0],"sum_hessian":[2.4430965E2,1.7722208E2,6.708758E1,9.071958E1,8.650249E1,3.664117E1,3.0446405E1,2.5625753E0,8.8157005E1,5.948401E1,2.7018476E1,2.5703226E1,1.0937946E1,5.3972917E0,2.5049114E1,1.5026085E0,1.0599668E0,4.460162E0,8.3696846E1,2.683834E1,3.2645668E1,3.5312808E0,2.3487196E1,1.9190289E1,6.512937E0,8.687594E0,2.2503524E0,2.6666682E0,2.7306232E0,3.003141E0,2.2045973E1,8.044406E1,3.2527854E0,2.3766827E1,3.0715148E0,1.2945442E1,1.9700228E1,1.7962355E1,5.524841E0,1.338349E1,5.806799E0,3.0177727E0,3.4951646E0,7.6768055E0,1.0107884E0,1.0525588E0,1.1977935E0,1.0097182E0,1.6569499E0,1.8433444E0,1.1597964E0,1.5073439E1,6.9725347E0],"tree_param":{"num_deleted":"0","num_feature":"5","num_nodes":"53","size_leaf_vector":"1"}},{"base_weights":[-1.6370978E-2,-1.1370387E-1,5.23251E-1,-4.1889566E-1,-4.4012878E-2,3.329742E-2,4.3412396E-1,1.7049037E-1,-5.0032204E-1,-1.255854E-1,1.0143995E-1,1.2280221E-1,5.028238E-1,3.9582145E-1,-7.7232867E-3,1.1878957E-1,-5.5423814E-1,3.5367885E-1,-1.509414E-1,-6.063123E-2,5.439911E-1,-3.2094154E-1,7.008063E-1,6.9639575E-1,2.8349862E-1,-6.38281E-3,2.1556942E-2,2.1461612E-2,-1.5768947E-2,-2.3803012E-2,-9.777693E-3,-6.0189664E-3,2.3902817E-2,-2.7290087E-3,-1.1532798E-2,3.646233E-4,-1.3716329E-2,2.176655E-2,-1.2598168E-2,5.8183596E-3,-1.679163E-2,2.9120987E-2,4.717634E-3,2.9441983E-2,8.88953E-3,-6.129179E-3,1.0521933E-2],"categories":[],"categories_nodes":[],"categories_segments":[],"categories_sizes":[],"default_left":[0,0,0,0,0,0,0,0,0,0,0,0,0,0,0,0,0,0,0,0,0,0,0,0,0,0,0,0,0,0,0,0,0,0,0,0,0,0,0,0,0,0,0,0,0,0,0],"id":20,"left_children":[1,3,5,7,9,-1,11,13,15,17,19,21,23,25,-1,27,29,31,33,35,37,39,41,43,45,-1,-1,-1,-1,-1,-1,-1,-1,-1,-1,-1,-1,-1,-1,-1,-1,-1,-1,-1,-1,-1,-1],"loss_changes":[1.3123994E1,4.481057E0,1.514926E0,1.9670496E0,2.0694172E0,0E0,6.8242073E-1,6.32763E-1,1.2242832E0,1.4084102E0,4.539895E0,2.1775916E0,9.99001E-1,9.38636E-1,0E0,1.7615021E0,1.4944983E0,1.6094053E0,1.4577985E0,1.3591167E0,3.270043E0,7.223773E-1,3.784852E-1,1.3377619E0,5.602635E-1,0E0,0E0,0E0,0E0,0E0,0E0,0E0,0E0,0E0,0E0,0E0,0E0,0E0,0E0,0E0,0E0,0E0,0E0,0E0,0E0,0E0,0E0],"parents":[2147483647,0,0,1,1,2,2,3,3,4,4,6,6,7,7,8,8,9,9,10,10,11,11,12,12,13,13,15,15,16,16,17,17,18,18,19,19,20,20,21,21,22,22,23,23,24,24],"right_children":[2,4,6,8,10,-1,12,14,16,18,20,22,24,26,-1,28,30,32,34,36,38,40,42,44,46,-1,-1,-1,-1,-1,-1,-1,-1,-1,-1,-1,-1,-1,-1,-1,-1,-1,-1,-1,-1,-1,-1],"split_conditions":[1.4207436E0,6.078591E-1,3E0,3E0,1.4E1,3.329742E-2,6E0,5.246E-1,3.6315644E-1,6.4866036E-1,1.062921E0,1.7599717E0,1.7308153E0,4.1262782E-1,-7.7232867E-3,2.1E1,1E0,6.268876E-1,1.1E1,1.0122006E0,2.3E1,1E0,2.1560366E0,1.6E1,1.7896469E0,-6.38281E-3,2.1556942E-2,2.1461612E-2,-1.5768947E-2,-2.3803012E-2,-9.777693E-3,-6.0189664E-3,2.3902817E-2,-2.7290087E-3,-1.1532798E-2,3.646233E-4,-1.3716329E-2,2.176655E-2,-1.2598168E-2,5.8183596E-3,-1.679163E-2,2.9120987E-2,4.717634E-3,2.9441983E-2,8.88953E-3,-6.129179E-3,1.0521933E-2],"split_indices":[4,4,0,0,0,0,0,4,4,4,4,4,4,4,0,0,3,4,0,4,0,3,4,0,4,0,0,0,0,0,0,0,0,0,0,0,0,0,0,0,0,0,0,0,0,0,0],"split_type":[0,0,0,0,0,0,0,0,0,0,0,0,0,0,0,0,0,0,0,0,0,0,0,0,0,0,0,0,0,0,0,0,0,0,0,0,0,0,0,0,0,0,0,0,0,0,0],"sum_hessian":[2.4773874E2,2.1055054E2,3.718821E1,3.8210003E1,1.7234053E2,3.3940828E0,3.379413E1,4.5053406E0,3.3704662E1,1.10504326E2,6.18362E1,6.613186E0,2.718094E1,3.000465E0,1.5048754E0,2.603683E0,3.1100979E1,4.9019523E0,1.0560238E2,4.5892452E1,1.5943749E1,3.992679E0,2.6205068E0,1.3282714E1,1.3898228E1,1.1578802E0,1.8425848E0,1.2948256E0,1.3088576E0,1.3979793E1,1.7121187E1,2.420726E0,2.481226E0,8.5126E1,2.0476381E1,3.9594856E1,6.2975974E0,1.3624762E1,2.318988E0,1.3244641E0,2.668215E0,1.2259386E0,1.3945683E0,6.9083753E0,6.3743386E0,1.4365515E0,1.2461676E1],"tree_param":{"num_deleted":"0","num_feature":"5","num_nodes":"47","size_leaf_vector":"1"}},{"base_weights":[2.7964344E-2,-1.972199E-1,3.2901976E-1,-3.7486538E-1,-1.1577197E-1,4.1174114E-2,4.6640408E-1,3.141986E-1,-4.340821E-1,5.467681E-1,-1.8088578E-1,2.1608609E-1,-6.169883E-1,3.20607E-1,6.4820105E-1,2.8547162E-2,-1.9302426E-2,-5.8371085E-1,-1.6702436E-1,3.1197183E-2,5.4732434E-2,3.6117384E-1,-2.4279734E-1,1.324012E-2,1.0072392E0,1.0227702E-3,-8.634943E-1,4.2931798E-1,-1.7218572E-1,-1.0358826E-2,6.995308E-1,-2.305955E-2,-7.097309E-3,2.1477556E-2,-8.593989E-3,-1.3382341E-2,3.1567436E-2,5.410087E-3,2.8189989E-2,-2.1255901E-2,-6.0623316E-3,-1.3343819E-2,5.4944237E-3,3.8051564E-2,1.423613E-2,-6.463022E-3,-3.3010673E-2,7.8056455E-3,2.1832664E-2,-2.2482239E-2,2.3462274E-3,2.9335592E-2,1.0987966E-2],"categories":[],"categories_nodes":[],"categories_segments":[],"categories_sizes":[],"default_left":[0,0,0,0,0,0,0,0,0,0,0,0,0,0,0,0,0,0,0,0,0,0,0,0,0,0,0,0,0,0,0,0,0,0,0,0,0,0,0,0,0,0,0,0,0,0,0,0,0,0,0,0,0],"id":21,"left_children":[1,3,5,7,9,11,13,15,17,19,21,23,25,27,29,-1,-1,31,33,-1,35,37,39,41,43,-1,45,47,49,-1,51,-1,-1,-1,-1,-1,-1,-1,-1,-1,-1,-1,-1,-1,-1,-1,-1,-1,-1,-1,-1,-1,-1],"loss_changes":[1.6550257E1,1.9784956E0,4.1105757E0,1.9106269E0,4.2947206E0,4.143739E0,1.6633196E0,3.0665805E0,1.5192962E0,2.1151621E0,3.0848322E0,4.5223746E0,1.2449787E0,2.2786646E0,1.7938423E0,0E0,0E0,1.4572096E0,1.8850666E0,0E0,3.2352154E0,8.3030045E-1,1.3882184E0,1.9109871E0,1.9860554E-1,0E0,6.1206293E-1,1.5269394E0,1.2367991E0,0E0,2.3572273E0,0E0,0E0,0E0,0E0,0E0,0E0,0E0,0E0,0E0,0E0,0E0,0E0,0E0,0E0,0E0,0E0,0E0,0E0,0E0,0E0,0E0,0E0],"parents":[2147483647,0,0,1,1,2,2,3,3,4,4,5,5,6,6,7,7,8,8,9,9,10,10,11,11,12,12,13,13,14,14,17,17,18,18,20,20,21,21,22,22,23,23,24,24,26,26,27,27,28,28,30,30],"right_children":[2,4,6,8,10,12,14,16,18,20,22,24,26,28,30,-1,-1,32,34,-1,36,38,40,42,44,-1,46,48,50,-1,52,-1,-1,-1,-1,-1,-1,-1,-1,-1,-1,-1,-1,-1,-1,-1,-1,-1,-1,-1,-1,-1,-1],"split_conditions":[9.7194666E-1,6.22164E-1,-6.2164855E-1,3.6315644E-1,6.649954E-1,-8.8872117E-1,1.3520557E0,2.1E1,5.4505724E-1,-2.0347994E-3,-1.8265156E0,-1.1455411E0,1.1E1,2.4132388E0,-4.4866273E-1,2.8547162E-2,-1.9302426E-2,1E0,1E0,3.1197183E-2,1.7862647E0,9.075669E-1,-1.4467651E0,-2.397171E0,-9.899189E-1,1.0227702E-3,-7.1898574E-1,1.4E1,5E0,-1.0358826E-2,1.1917069E0,-2.305955E-2,-7.097309E-3,2.1477556E-2,-8.593989E-3,-1.3382341E-2,3.1567436E-2,5.410087E-3,2.8189989E-2,-2.1255901E-2,-6.0623316E-3,-1.3343819E-2,5.4944237E-3,3.8051564E-2,1.423613E-2,-6.463022E-3,-3.3010673E-2,7.8056455E-3,2.1832664E-2,-2.2482239E-2,2.3462274E-3,2.9335592E-2,1.0987966E-2],"split_indices":[4,4,2,4,4,2,4,0,2,2,2,2,0,2,2,0,0,3,3,0,2,4,2,2,2,0,2,0,0,0,2,0,0,0,0,0,0,0,0,0,0,0,0,0,0,0,0,0,0,0,0,0,0],"split_type":[0,0,0,0,0,0,0,0,0,0,0,0,0,0,0,0,0,0,0,0,0,0,0,0,0,0,0,0,0,0,0,0,0,0,0,0,0,0,0,0,0,0,0,0,0,0,0,0,0,0,0,0,0],"sum_hessian":[2.4217235E2,1.3874123E2,1.0343113E2,4.2481853E1,9.625938E1,3.383669E1,6.9594444E1,3.0211306E0,3.946072E1,7.9518023E0,8.830757E1,2.7263006E1,6.573682E0,4.0154766E1,2.9439678E1,1.8176419E0,1.2034886E0,2.4530764E1,1.4929957E1,3.4153368E0,4.536465E0,8.556695E0,7.975088E1,2.2508678E1,4.754328E0,2.041993E0,4.5316887E0,3.300304E1,7.151725E0,1.1649483E0,2.827473E1,1.5212036E1,9.318728E0,1.1839631E0,1.3745994E1,3.3882024E0,1.1482627E0,7.518223E0,1.0384728E0,5.0934978E0,7.465738E1,5.6526017E0,1.6856077E1,2.2635999E0,2.490728E0,1.7240825E0,2.8076065E0,2.2259834E1,1.0743204E1,1.5607843E0,5.5909405E0,1.4353459E1,1.392127E1],"tree_param":{"num_deleted":"0","num_feature":"5","num_nodes":"53","size_leaf_vector":"1"}},{"base_weights":[1.5372784E-3,-1.3508244E-1,4.213808E-1,-4.209484E-1,-1.0335319E-1,3.298815E-1,8.927385E-1,1.299532E-1,-5.463721E-1,2.0536901E-2,-1.15737855E-1,4.2102253E-1,-2.4489228E-1,3.5314152E-3,2.9905232E-2,1.665093E-2,-6.0082534E-3,-8.6485267E-1,-2.6835358E-1,-1.6349588E-1,4.8021935E-2,2.7706182E-1,7.544852E-1,-7.302882E-1,2.5312528E-1,-6.7586065E-3,-2.8289992E-2,1.5862353E-2,-1.4714323E-2,-1.396844E-2,-3.2480152E-3,-1.2661665E-3,2.1981655E-2,1.0203568E-2,-2.1666814E-2,3.6737702E-3,2.7697882E-2,-3.8362807E-3,-3.0287508E-2,1.5386125E-2,-3.3785454E-5],"categories":[],"categories_nodes":[],"categories_segments":[],"categories_sizes":[],"default_left":[0,0,0,0,0,0,0,0,0,0,0,0,0,0,0,0,0,0,0,0,0,0,0,0,0,0,0,0,0,0,0,0,0,0,0,0,0,0,0,0,0],"id":22,"left_children":[1,3,5,7,9,11,13,15,17,-1,19,21,23,-1,-1,-1,-1,25,27,29,31,33,35,37,39,-1,-1,-1,-1,-1,-1,-1,-1,-1,-1,-1,-1,-1,-1,-1,-1],"loss_changes":[1.4018774E1,1.6291335E0,2.2934046E0,1.3214927E0,1.7118585E0,2.8185396E0,6.2237406E-1,6.9568133E-1,1.0902E0,0E0,1.3028007E0,1.9564352E0,2.0526927E0,0E0,0E0,0E0,0E0,1.1294985E-1,1.9277678E0,2.0923336E0,2.3882823E0,2.3305435E0,1.2759819E0,5.72567E-1,3.0148605E-1,0E0,0E0,0E0,0E0,0E0,0E0,0E0,0E0,0E0,0E0,0E0,0E0,0E0,0E0,0E0,0E0],"parents":[2147483647,0,0,1,1,2,2,3,3,4,4,5,5,6,6,7,7,8,8,10,10,11,11,12,12,17,17,18,18,19,19,20,20,21,21,22,22,23,23,24,24],"right_children":[2,4,6,8,10,12,14,16,18,-1,20,22,24,-1,-1,-1,-1,26,28,30,32,34,36,38,40,-1,-1,-1,-1,-1,-1,-1,-1,-1,-1,-1,-1,-1,-1,-1,-1],"split_conditions":[1.2223595E0,4.9314255E-1,1.9958537E0,3.6315644E-1,5.0767654E-1,1.3751382E0,1.2907809E0,-4.0009826E-1,1E0,2.0536901E-2,1.3596878E0,4.8906642E-1,1.4919975E0,3.5314152E-3,2.9905232E-2,1.665093E-2,-6.0082534E-3,-2.5957553E0,2.729228E-1,6.22164E-1,1.106348E0,4.4022608E-1,1.3236123E0,1.3570502E0,1.641294E0,-6.7586065E-3,-2.8289992E-2,1.5862353E-2,-1.4714323E-2,-1.396844E-2,-3.2480152E-3,-1.2661665E-3,2.1981655E-2,1.0203568E-2,-2.1666814E-2,3.6737702E-3,2.7697882E-2,-3.8362807E-3,-3.0287508E-2,1.5386125E-2,-3.3785454E-5],"split_indices":[4,4,2,4,4,2,4,2,3,0,2,2,4,0,0,0,0,2,2,4,4,2,4,4,4,0,0,0,0,0,0,0,0,0,0,0,0,0,0,0,0],"split_type":[0,0,0,0,0,0,0,0,0,0,0,0,0,0,0,0,0,0,0,0,0,0,0,0,0,0,0,0,0,0,0,0,0,0,0,0,0,0,0,0,0],"sum_hessian":[2.4241212E2,1.834082E2,5.9003925E1,1.709782E1,1.6631038E2,5.083564E1,8.168286E0,3.164074E0,1.3933746E1,1.7337466E0,1.6457663E2,4.410886E1,6.726778E0,1.219568E0,6.9487185E0,1.0857375E0,2.0783365E0,5.5104957E0,8.42325E0,1.2741857E2,3.7158062E1,3.2087208E1,1.2021653E1,3.1703684E0,3.5564098E0,1.022781E0,4.487715E0,1.5348792E0,6.8883715E0,1.8544352E1,1.0887422E2,3.3660725E1,3.4973395E0,3.080311E1,1.2840979E0,2.8973658E0,9.124288E0,1.4660653E0,1.704303E0,1.2560441E0,2.3003657E0],"tree_param":{"num_deleted":"0","num_feature":"5","num_nodes":"41","size_leaf_vector":"1"}},{"base_weights":[7.4800733E-3,-1.3218483E-1,3.4401324E-1,-1.0999459E-1,-9.2740035E-1,2.1344896E-2,4.9677265E-1,-2.4114701E-1,4.4721976E-2,-3.1651847E-2,-8.80644E-3,1.4071473E-1,-2.4567977E-2,9.713312E-1,4.3489847E-1,-2.7128464E-1,2.0536682E-1,3.2137507E-1,-4.3419097E-2,-4.718404E-2,5.5805486E-1,-1.0233707E-3,3.744726E-2,-6.3029476E-3,4.9938086E-1,-5.5892086E-3,-1.5067438E-2,1.1881101E-2,-6.626214E-3,1.311072E-2,-4.3980638E-3,-5.1224115E-3,5.6215823E-3,-2.446789E-2,3.1999217E-3,2.8643582E-2,-4.351387E-3,8.242438E-3,-1.5306317E-2,2.0067587E-2,8.320808E-3],"categories":[],"categories_nodes":[],"categories_segments":[],"categories_sizes":[],"default_left":[0,0,0,0,0,0,0,0,0,0,0,0,0,0,0,0,0,0,0,0,0,0,0,0,0,0,0,0,0,0,0,0,0,0,0,0,0,0,0,0,0],"id":23,"left_children":[1,3,5,7,9,11,13,15,17,-1,-1,19,-1,21,23,25,27,29,31,33,35,-1,-1,37,39,-1,-1,-1,-1,-1,-1,-1,-1,-1,-1,-1,-1,-1,-1,-1,-1],"loss_changes":[1.1570117E1,2.968472E0,3.5477543E0,3.4687505E0,6.1635256E-2,2.5466652E0,1.014904E0,1.2989607E0,1.9409969E0,0E0,0E0,1.7576953E0,0E0,1.3888531E0,1.286664E0,1.6135001E0,6.084726E-1,1.103924E0,1.8191905E0,1.9957966E0,2.0722244E0,0E0,0E0,1.0947819E0,1.2965803E0,0E0,0E0,0E0,0E0,0E0,0E0,0E0,0E0,0E0,0E0,0E0,0E0,0E0,0E0,0E0,0E0],"parents":[2147483647,0,0,1,1,2,2,3,3,4,4,5,5,6,6,7,7,8,8,11,11,13,13,14,14,15,15,16,16,17,17,18,18,19,19,20,20,23,23,24,24],"right_children":[2,4,6,8,10,12,14,16,18,-1,-1,20,-1,22,24,26,28,30,32,34,36,-1,-1,38,40,-1,-1,-1,-1,-1,-1,-1,-1,-1,-1,-1,-1,-1,-1,-1,-1],"split_conditions":[1.1509497E0,1.1368966E0,-6.372217E-1,7.9080045E-1,-2.2524305E-1,-7.1898574E-1,1.191273E0,2.5598192E0,-9.6581507E-1,-3.1651847E-2,-8.80644E-3,-1.1608073E0,-2.4567977E-2,-6.492656E-2,1.237431E0,1.2165102E0,7.443699E-1,1.062921E0,1.1802683E0,1.1980349E0,1E0,-1.0233707E-3,3.744726E-2,1E0,1.1917069E0,-5.5892086E-3,-1.5067438E-2,1.1881101E-2,-6.626214E-3,1.311072E-2,-4.3980638E-3,-5.1224115E-3,5.6215823E-3,-2.446789E-2,3.1999217E-3,2.8643582E-2,-4.351387E-3,8.242438E-3,-1.5306317E-2,2.0067587E-2,8.320808E-3],"split_indices":[4,4,2,4,2,2,4,2,2,0,0,2,0,2,4,2,4,4,2,4,1,0,0,1,2,0,0,0,0,0,0,0,0,0,0,0,0,0,0,0,0],"split_type":[0,0,0,0,0,0,0,0,0,0,0,0,0,0,0,0,0,0,0,0,0,0,0,0,0,0,0,0,0,0,0,0,0,0,0,0,0,0,0,0,0],"sum_hessian":[2.441954E2,1.7300406E2,7.1191345E1,1.6941492E2,3.589151E0,2.3240654E1,4.795069E1,9.138754E1,7.8027374E1,2.4343393E0,1.1548116E0,2.1078745E1,2.1619093E0,3.835434E0,4.4115257E1,8.597693E1,5.410612E0,1.821351E1,5.9813866E1,1.5146352E1,5.932392E0,1.0175592E0,2.817875E0,5.7404165E0,3.837484E1,6.417269E1,2.1804235E1,3.7873023E0,1.6233097E0,1.4657433E1,3.556077E0,3.871579E1,2.1098074E1,1.8091303E0,1.3337222E1,3.5636218E0,2.3687701E0,3.9770248E0,1.7633917E0,2.061783E1,1.775701E1],"tree_param":{"num_deleted":"0","num_feature":"5","num_nodes":"41","size_leaf_vector":"1"}},{"base_weights":[-2.3677656E-2,-1.6756737E-1,3.344658E-1,-2.2748816E-1,2.8198656E-2,2.8057545E-1,3.2089423E-2,-1.9117793E-1,-8.1045735E-1,1.2300814E-1,-2.4975063E-2,5.462642E-2,4.1828135E-1,-2.5690952E-1,6.627594E-2,-3.0326964E-2,4.978471E-4,2.4088632E-2,5.927299E-2,-1.19116016E-1,3.8290274E-1,3.0102428E-2,2.7219167E-1,-2.407001E-2,-6.860256E-3,1.2096894E-2,-4.34867E-3,-1.6299477E-2,3.5566913E-3,4.165621E-3,-8.049285E-3,2.5569096E-2,3.6439358E-3,-8.258573E-3,1.1813952E-2],"categories":[],"categories_nodes":[],"categories_segments":[],"categories_sizes":[],"default_left":[0,0,0,0,0,0,0,0,0,0,0,0,0,0,0,0,0,0,0,0,0,0,0,0,0,0,0,0,0,0,0,0,0,0,0],"id":24,"left_children":[1,3,5,7,9,11,-1,13,15,17,-1,19,21,23,25,-1,-1,-1,27,29,31,-1,33,-1,-1,-1,-1,-1,-1,-1,-1,-1,-1,-1,-1],"loss_changes":[1.28195095E1,2.0868573E0,2.5255575E0,2.7217736E0,3.566681E0,2.086886E0,0E0,2.2041597E0,1.2865453E0,1.6473798E0,0E0,1.5756592E0,3.3153434E0,1.4051647E0,1.9859409E0,0E0,0E0,0E0,1.3804553E0,7.417588E-1,1.0649468E0,0E0,2.4362385E0,0E0,0E0,0E0,0E0,0E0,0E0,0E0,0E0,0E0,0E0,0E0,0E0],"parents":[2147483647,0,0,1,1,2,2,3,3,4,4,5,5,7,7,8,8,9,9,11,11,12,12,13,13,14,14,18,18,19,19,20,20,22,22],"right_children":[2,4,6,8,10,12,-1,14,16,18,-1,20,22,24,26,-1,-1,-1,28,30,32,-1,34,-1,-1,-1,-1,-1,-1,-1,-1,-1,-1,-1,-1],"split_conditions":[1.1469858E0,9.451317E-1,2.3410726E0,9.225702E-1,1.1284301E0,8E0,3.2089423E-2,8.221226E-1,1.6E1,9.58825E-1,-2.4975063E-2,1.4919975E0,1.1E1,1E0,8.690558E-1,-3.0326964E-2,4.978471E-4,2.4088632E-2,9.662418E-1,4E0,1.6086984E0,3.0102428E-2,1.2E1,-2.407001E-2,-6.860256E-3,1.2096894E-2,-4.34867E-3,-1.6299477E-2,3.5566913E-3,4.165621E-3,-8.049285E-3,2.5569096E-2,3.6439358E-3,-8.258573E-3,1.1813952E-2],"split_indices":[4,4,4,4,4,0,0,4,0,4,0,4,0,0,4,0,0,0,4,0,4,0,0,0,0,0,0,0,0,0,0,0,0,0,0],"split_type":[0,0,0,0,0,0,0,0,0,0,0,0,0,0,0,0,0,0,0,0,0,0,0,0,0,0,0,0,0,0,0,0,0,0,0],"sum_hessian":[2.4667477E2,1.7635394E2,7.032083E1,1.3490092E2,4.145302E1,6.680549E1,3.5153396E0,1.2824136E2,6.6595726E0,3.8111927E1,3.341091E0,2.5826246E1,4.097924E1,1.0216047E2,2.6080889E1,5.1815095E0,1.4780636E0,2.2722769E0,3.583965E1,1.7304743E1,8.521503E0,7.0147166E0,3.3964527E1,3.678724E0,9.848174E1,9.699472E0,1.6381416E1,2.478822E0,3.336083E1,6.366225E0,1.0938519E1,2.2398674E0,6.281636E0,5.9434013E0,2.8021124E1],"tree_param":{"num_deleted":"0","num_feature":"5","num_nodes":"35","size_leaf_vector":"1"}},{"base_weights":[-1.6970739E-2,-1.5088621E-1,3.2188088E-1,-3.3655742E-1,-9.715314E-2,1.7187417E-1,5.2384317E-1,-5.16311E-1,-5.3910308E-2,2.889632E-1,-1.4065634E-1,-7.502372E-3,4.370015E-1,3.1303804E-2,3.7950322E-1,-1.7807409E-1,-6.401516E-1,3.0249014E-1,-2.826035E-1,-3.7441665E-1,4.5354983E-1,-4.9937204E-1,-1.05378605E-1,-3.7955353E-1,1.925335E-1,9.029185E-1,1.964105E-1,2.74289E-1,2.7135758E-2,-1.2363641E-2,2.0176016E-2,3.017262E-3,-2.164146E-2,1.7567331E-2,-9.185264E-3,-1.5097675E-2,3.784647E-3,-1.1030893E-3,-1.5047736E-2,2.1898309E-2,2.750784E-4,4.4463836E-3,-1.8686073E-2,-4.649855E-3,3.280025E-3,-4.180072E-4,-1.9674115E-2,9.0391645E-3,-1.8813774E-2,7.517723E-3,3.6621783E-2,-8.79098E-3,1.4092305E-2,-2.0716667E-4,1.391774E-2],"categories":[],"categories_nodes":[],"categories_segments":[],"categories_sizes":[],"default_left":[0,0,0,0,0,0,0,0,0,0,0,0,0,0,0,0,0,0,0,0,0,0,0,0,0,0,0,0,0,0,0,0,0,0,0,0,0,0,0,0,0,0,0,0,0,0,0,0,0,0,0,0,0,0,0],"id":25,"left_children":[1,3,5,7,9,11,13,15,17,19,21,23,25,-1,27,29,31,33,35,37,39,41,43,45,47,49,51,53,-1,-1,-1,-1,-1,-1,-1,-1,-1,-1,-1,-1,-1,-1,-1,-1,-1,-1,-1,-1,-1,-1,-1,-1,-1,-1,-1],"loss_changes":[1.1292808E1,1.7459917E0,2.0460796E0,1.9845858E0,2.3868122E0,1.9981682E0,1.8212023E0,8.952832E-1,1.4315038E0,1.7497988E0,1.5444534E0,2.008281E0,1.7220275E0,0E0,1.1167097E0,1.8385758E0,1.1105943E0,1.374725E0,1.017411E0,1.2859952E-1,1.4729092E0,9.7465897E-1,1.2545594E0,9.431759E-1,1.7557809E0,8.3269167E-1,1.8035061E0,1.1772794E0,0E0,0E0,0E0,0E0,0E0,0E0,0E0,0E0,0E0,0E0,0E0,0E0,0E0,0E0,0E0,0E0,0E0,0E0,0E0,0E0,0E0,0E0,0E0,0E0,0E0,0E0,0E0],"parents":[2147483647,0,0,1,1,2,2,3,3,4,4,5,5,6,6,7,7,8,8,9,9,10,10,11,11,12,12,14,14,15,15,16,16,17,17,18,18,19,19,20,20,21,21,22,22,23,23,24,24,25,25,26,26,27,27],"right_children":[2,4,6,8,10,12,14,16,18,20,22,24,26,-1,28,30,32,34,36,38,40,42,44,46,48,50,52,54,-1,-1,-1,-1,-1,-1,-1,-1,-1,-1,-1,-1,-1,-1,-1,-1,-1,-1,-1,-1,-1,-1,-1,-1,-1,-1,-1],"split_conditions":[1.1529098E0,6.078591E-1,1.4919975E0,5.2172846E-1,-1.8265156E0,7.628294E-1,1.5831658E0,6E0,1.2741525E0,4E0,2E0,8E0,1.3220538E0,3.1303804E-2,2.4476225E0,5E0,3.6315644E-1,5.6501234E-1,5.3408736E-1,9.1040933E-1,1E0,-9.7300273E-1,1.7862647E0,1.2907809E0,6.1657876E-1,1.037192E0,1.9391855E0,-2.0283337E-1,2.7135758E-2,-1.2363641E-2,2.0176016E-2,3.017262E-3,-2.164146E-2,1.7567331E-2,-9.185264E-3,-1.5097675E-2,3.784647E-3,-1.1030893E-3,-1.5047736E-2,2.1898309E-2,2.750784E-4,4.4463836E-3,-1.8686073E-2,-4.649855E-3,3.280025E-3,-4.180072E-4,-1.9674115E-2,9.0391645E-3,-1.8813774E-2,7.517723E-3,3.6621783E-2,-8.79098E-3,1.4092305E-2,-2.0716667E-4,1.391774E-2],"split_indices":[4,4,4,2,2,2,4,0,2,0,0,0,2,0,4,0,4,4,4,4,1,2,2,4,2,2,2,2,0,0,0,0,0,0,0,0,0,0,0,0,0,0,0,0,0,0,0,0,0,0,0,0,0,0,0],"split_type":[0,0,0,0,0,0,0,0,0,0,0,0,0,0,0,0,0,0,0,0,0,0,0,0,0,0,0,0,0,0,0,0,0,0,0,0,0,0,0,0,0,0,0,0,0,0,0,0,0,0,0,0,0,0,0],"sum_hessian":[2.4679344E2,1.7728459E2,6.950885E1,3.8609253E1,1.3867534E2,4.0946793E1,2.8562054E1,2.3094975E1,1.5514281E1,1.3470894E1,1.25204445E2,2.5002571E1,1.5944222E1,4.8550224E0,2.3707031E1,6.843033E0,1.6251942E1,5.9378757E0,9.576405E0,2.4243722E0,1.1046522E1,1.0032742E1,1.151717E2,8.428601E0,1.6573969E1,4.492106E0,1.1452116E1,2.1017555E1,2.6894755E0,5.7707047E0,1.0723282E0,1.58257E0,1.4669371E1,4.078784E0,1.8590918E0,6.0690713E0,3.5073335E0,1.0160085E0,1.4083638E0,6.4143467E0,4.6321754E0,1.5747988E0,8.457943E0,9.3779045E1,2.1392658E1,4.0796213E0,4.3489795E0,1.5190528E1,1.3834412E0,2.0574694E0,2.4346368E0,4.077922E0,7.3741946E0,8.853315E0,1.216424E1],"tree_param":{"num_deleted":"0","num_feature":"5","num_nodes":"55","size_leaf_vector":"1"}},{"base_weights":[1.5338959E-2,-1.250256E-1,3.897935E-1,-3.2876194E-1,-6.726581E-2,2.4290836E-1,6.724635E-1,-2.2743805E-1,-7.881413E-1,-5.359026E-1,-2.7124563E-2,4.5411766E-2,5.3937435E-1,4.0220134E-2,4.7464842E-1,-4.1541305E-1,-4.453525E-2,-2.6614014E-2,-5.1678447E-3,-3.0865323E-2,-3.2075992E-1,3.621085E-1,-7.6680996E-2,2.2066921E-1,-4.0477678E-1,8.036379E-1,4.226641E-1,1.3750978E-1,5.509394E-1,-4.2535285E-3,-2.2547003E-2,4.7153137E-3,-1.0584752E-2,2.5487638E-3,-1.4380079E-2,-3.129983E-3,2.3191389E-2,-1.4068258E-3,-1.9906878E-2,2.2437822E-3,2.3909658E-2,-2.4213042E-2,5.861686E-4,7.3579983E-3,3.098914E-2,-7.4947462E-3,1.5462177E-2,1.7662564E-2,-6.6448455E-3,3.009575E-2,1.0555538E-2],"categories":[],"categories_nodes":[],"categories_segments":[],"categories_sizes":[],"default_left":[0,0,0,0,0,0,0,0,0,0,0,0,0,0,0,0,0,0,0,0,0,0,0,0,0,0,0,0,0,0,0,0,0,0,0,0,0,0,0,0,0,0,0,0,0,0,0,0,0,0,0],"id":26,"left_children":[1,3,5,7,9,11,13,15,17,19,21,23,25,-1,27,29,31,-1,-1,-1,33,35,37,39,41,43,45,47,49,-1,-1,-1,-1,-1,-1,-1,-1,-1,-1,-1,-1,-1,-1,-1,-1,-1,-1,-1,-1,-1,-1],"loss_changes":[1.2644312E1,2.0379586E0,2.5595617E0,1.6086059E0,2.574891E0,2.5939674E0,2.2530909E0,1.1117812E0,2.4563265E-1,8.1609154E-1,2.4937344E0,2.2931693E0,2.0896816E-1,0E0,3.978753E-1,1.373661E0,1.16127E0,0E0,0E0,0E0,6.182385E-1,2.8816948E0,1.9657736E0,1.6851002E0,1.4121746E0,3.023994E-1,1.0298798E0,8.967673E-1,9.6913433E-1,0E0,0E0,0E0,0E0,0E0,0E0,0E0,0E0,0E0,0E0,0E0,0E0,0E0,0E0,0E0,0E0,0E0,0E0,0E0,0E0,0E0,0E0],"parents":[2147483647,0,0,1,1,2,2,3,3,4,4,5,5,6,6,7,7,8,8,9,9,10,10,11,11,12,12,14,14,15,15,16,16,20,20,21,21,22,22,23,23,24,24,25,25,26,26,27,27,28,28],"right_children":[2,4,6,8,10,12,14,16,18,20,22,24,26,-1,28,30,32,-1,-1,-1,34,36,38,40,42,44,46,48,50,-1,-1,-1,-1,-1,-1,-1,-1,-1,-1,-1,-1,-1,-1,-1,-1,-1,-1,-1,-1,-1,-1],"split_conditions":[1.1599907E0,6.078591E-1,1.4E1,5.881495E-1,2E0,1.4919975E0,1.237431E0,4.8472473E-1,2E1,7.154587E-1,6.7417973E-1,1.1E1,1.5831658E0,4.0220134E-2,1.3343127E0,1.3E1,5.6501234E-1,-2.6614014E-2,-5.1678447E-3,-3.0865323E-2,8.5186094E-1,6.423922E-1,1.1368966E0,9E0,1.2907809E0,1.5240012E0,1.641294E0,1.8E1,1.4787819E0,-4.2535285E-3,-2.2547003E-2,4.7153137E-3,-1.0584752E-2,2.5487638E-3,-1.4380079E-2,-3.129983E-3,2.3191389E-2,-1.4068258E-3,-1.9906878E-2,2.2437822E-3,2.3909658E-2,-2.4213042E-2,5.861686E-4,7.3579983E-3,3.098914E-2,-7.4947462E-3,1.5462177E-2,1.7662564E-2,-6.6448455E-3,3.009575E-2,1.0555538E-2],"split_indices":[4,4,0,4,0,4,4,4,0,4,4,0,4,0,4,0,4,0,0,0,4,4,4,0,4,4,4,0,4,0,0,0,0,0,0,0,0,0,0,0,0,0,0,0,0,0,0,0,0,0,0],"split_type":[0,0,0,0,0,0,0,0,0,0,0,0,0,0,0,0,0,0,0,0,0,0,0,0,0,0,0,0,0,0,0,0,0,0,0,0,0,0,0,0,0,0,0,0,0,0,0,0,0,0,0],"sum_hessian":[2.3864124E2,1.740606E2,6.4580635E1,3.7410507E1,1.3665009E2,4.372102E1,2.0859617E1,3.187503E1,5.5354776E0,9.806915E0,1.2684317E2,2.6932552E1,1.6788467E1,3.4450486E0,1.741457E1,1.509263E1,1.67824E1,4.389504E0,1.1459738E0,1.8305516E0,7.976363E0,1.3613232E1,1.1322994E2,1.9752699E1,7.179854E0,3.340016E0,1.3448451E1,3.7306836E0,1.3683886E1,9.103872E0,5.9887586E0,1.0441045E1,6.341355E0,2.371947E0,5.6044164E0,6.7254815E0,6.88775E0,1.0878836E2,4.4415793E0,1.6664421E1,3.0882783E0,3.222368E0,3.9574862E0,1.574927E0,1.765089E0,1.4246033E0,1.2023848E1,1.3694407E0,2.361243E0,2.948067E0,1.0735819E1],"tree_param":{"num_deleted":"0","num_feature":"5","num_nodes":"51","size_leaf_vector":"1"}},{"base_weights":[1.2986762E-2,-6.26089E-2,5.5702025E-1,-3.2164124E-1,5.6356764E-3,7.090938E-1,1.5688813E-1,-6.9120276E-1,-2.0376994E-1,7.2437996E-1,-3.906E-2,3.9627007E-1,9.1001487E-1,-1.8618867E-1,5.922519E-1,-5.831449E-3,-7.9362684E-1,-3.930075E-2,-4.994597E-1,1.1249164E0,-1.8231721E-1,-1.1818612E-1,1.1589782E-1,5.696916E-1,-1.6081635E-2,9.8857313E-1,7.3888344E-3,1.4870791E-2,-4.5984504E-1,2.5530685E-2,-3.5467064E-3,-2.7744127E-2,-4.3671615E-3,2.3883978E-2,-4.4390364E-3,-2.1087976E-2,-4.3786457E-3,3.910945E-2,2.4813507E-3,-2.8086314E-2,2.977327E-2,-1.6696902E-2,-1.8298499E-3,-3.675048E-3,9.146022E-3,2.705883E-2,8.8212057E-4,3.309509E-2,7.1769524E-3,-1.6040707E-2,-5.3199846E-3],"categories":[],"categories_nodes":[],"categories_segments":[],"categories_sizes":[],"default_left":[0,0,0,0,0,0,0,0,0,0,0,0,0,0,0,0,0,0,0,0,0,0,0,0,0,0,0,0,0,0,0,0,0,0,0,0,0,0,0,0,0,0,0,0,0,0,0,0,0,0,0],"id":27,"left_children":[1,3,5,7,9,11,13,15,17,19,21,23,25,27,29,-1,31,33,35,37,39,41,43,45,-1,47,-1,-1,49,-1,-1,-1,-1,-1,-1,-1,-1,-1,-1,-1,-1,-1,-1,-1,-1,-1,-1,-1,-1,-1,-1],"loss_changes":[1.0182397E1,3.8473046E0,1.7266226E0,1.8358598E0,5.5909243E0,9.9711037E-1,1.5444492E0,3.8285685E-1,1.7225033E0,3.90526E0,2.0241487E0,1.9577309E0,4.0212822E-1,1.3719885E0,9.2260313E-1,0E0,5.817399E-1,2.3061109E0,8.1221604E-1,1.2345333E0,4.4560676E0,2.6997805E0,2.557017E0,1.6073933E0,0E0,6.5833664E-1,0E0,0E0,8.661509E-3,0E0,0E0,0E0,0E0,0E0,0E0,0E0,0E0,0E0,0E0,0E0,0E0,0E0,0E0,0E0,0E0,0E0,0E0,0E0,0E0,0E0,0E0],"parents":[2147483647,0,0,1,1,2,2,3,3,4,4,5,5,6,6,7,7,8,8,9,9,10,10,11,11,12,12,13,13,14,14,16,16,17,17,18,18,19,19,20,20,21,21,22,22,23,23,25,25,28,28],"right_children":[2,4,6,8,10,12,14,16,18,20,22,24,26,28,30,-1,32,34,36,38,40,42,44,46,-1,48,-1,-1,50,-1,-1,-1,-1,-1,-1,-1,-1,-1,-1,-1,-1,-1,-1,-1,-1,-1,-1,-1,-1,-1,-1],"split_conditions":[1.4919975E0,6.268876E-1,1.8E1,-1.4467651E0,6.699739E-1,-2.558704E-1,1.9038184E0,4.672335E-1,5.681895E-1,1.553029E0,1.4E1,-3.8228002E-1,1.5E1,1.5831658E0,1.9391855E0,-5.831449E-3,5.881495E-1,-8.9730936E-1,1.4E1,1.7E1,2.4553072E0,7.288843E-1,-1.1348794E-1,1.9285454E0,-1.6081635E-2,2.2573547E0,7.3888344E-3,1.4870791E-2,4.645848E-1,2.5530685E-2,-3.5467064E-3,-2.7744127E-2,-4.3671615E-3,2.3883978E-2,-4.4390364E-3,-2.1087976E-2,-4.3786457E-3,3.910945E-2,2.4813507E-3,-2.8086314E-2,2.977327E-2,-1.6696902E-2,-1.8298499E-3,-3.675048E-3,9.146022E-3,2.705883E-2,8.8212057E-4,3.309509E-2,7.1769524E-3,-1.6040707E-2,-5.3199846E-3],"split_indices":[4,4,0,2,4,2,4,4,4,2,0,2,0,4,2,0,4,2,0,0,2,4,2,4,0,4,0,0,2,0,0,0,0,0,0,0,0,0,0,0,0,0,0,0,0,0,0,0,0,0,0],"split_type":[0,0,0,0,0,0,0,0,0,0,0,0,0,0,0,0,0,0,0,0,0,0,0,0,0,0,0,0,0,0,0,0,0,0,0,0,0,0,0,0,0,0,0,0,0,0,0,0,0,0,0],"sum_hessian":[2.4573882E2,2.1653528E2,2.9203539E1,4.4378204E1,1.7215707E2,2.0601585E1,8.6019535E0,9.555339E0,3.4822865E1,9.1886635E0,1.6296841E2,9.219524E0,1.138206E1,5.1309686E0,3.4709852E0,2.128516E0,7.426823E0,2.3104528E1,1.1718336E1,6.206324E0,2.9823394E0,1.0803818E2,5.4930237E1,8.101519E0,1.1180063E0,9.73981E0,1.6422509E0,1.2370889E0,3.89388E0,2.3992894E0,1.0716959E0,5.8214216E0,1.6054018E0,1.9311897E0,2.117334E1,6.8100777E0,4.908258E0,5.083652E0,1.1226723E0,1.9402562E0,1.042083E0,1.146048E1,9.65777E1,2.4444008E1,3.0486229E1,4.6019645E0,3.4995537E0,8.038323E0,1.7014861E0,2.3726678E0,1.521212E0],"tree_param":{"num_deleted":"0","num_feature":"5","num_nodes":"51","size_leaf_vector":"1"}},{"base_weights":[1.2025667E-2,-8.3605126E-2,6.805078E-1,-2.1415243E-1,1.3260907E-2,2.635249E-1,7.5020945E-1,-4.954701E-2,-3.3960533E-1,3.2396957E-2,-1.4608256E-2,6.4455414E-1,-2.1095642E-1,9.073731E-1,4.3652183E-1,-3.3506018E-1,2.9225677E-1,-3.060115E-2,-2.791038E-1,6.1727376E-3,-2.5120107E-2,2.616847E-2,5.3185206E-3,2.7441548E-3,-1.2736035E-2,4.9097186E-1,1.0581417E0,-1.8307563E-2,6.16798E-1,-3.678329E-3,-2.8612113E-2,-2.027126E-2,1.2551333E-2,-1.1498445E-2,9.786502E-5,-4.956217E-4,2.5322167E-2,3.4556814E-2,-6.1864294E-3,2.0168098E-2,3.8464397E-2,2.5767107E-2,4.449489E-3],"categories":[],"categories_nodes":[],"categories_segments":[],"categories_sizes":[],"default_left":[0,0,0,0,0,0,0,0,0,0,0,0,0,0,0,0,0,0,0,0,0,0,0,0,0,0,0,0,0,0,0,0,0,0,0,0,0,0,0,0,0,0,0],"id":28,"left_children":[1,3,5,7,9,11,13,15,17,-1,19,21,23,25,27,29,31,-1,33,35,-1,-1,-1,-1,-1,37,39,-1,41,-1,-1,-1,-1,-1,-1,-1,-1,-1,-1,-1,-1,-1,-1],"loss_changes":[1.545107E1,2.6781402E0,6.814146E-1,1.8452382E0,3.6539247E0,1.1978273E0,8.5484123E-1,4.018178E0,1.8148623E0,0E0,2.0612433E0,2.1822762E-1,2.5646368E-1,4.8353577E-1,2.338303E0,2.8211648E0,2.5799236E0,0E0,1.419493E0,2.2631817E0,0E0,0E0,0E0,0E0,0E0,3.0542338E0,7.713699E-2,0E0,9.3496346E-1,0E0,0E0,0E0,0E0,0E0,0E0,0E0,0E0,0E0,0E0,0E0,0E0,0E0,0E0],"parents":[2147483647,0,0,1,1,2,2,3,3,4,4,5,5,6,6,7,7,8,8,10,10,11,11,12,12,13,13,14,14,15,15,16,16,18,18,19,19,25,25,26,26,28,28],"right_children":[2,4,6,8,10,12,14,16,18,-1,20,22,24,26,28,30,32,-1,34,36,-1,-1,-1,-1,-1,38,40,-1,42,-1,-1,-1,-1,-1,-1,-1,-1,-1,-1,-1,-1,-1,-1],"split_conditions":[1.4919975E0,7.9080045E-1,-1.3536177E0,2.8839761E-2,8.048667E-1,1.8749096E0,1.1802683E0,-1.0591503E0,1.2404664E-1,3.2396957E-2,1.4787819E0,-2.0074167E0,1.2E1,-5.412591E-1,1.2468201E0,7.443699E-1,3.9871526E-1,-3.060115E-2,7.088119E-1,1.448368E0,-2.5120107E-2,2.616847E-2,5.3185206E-3,2.7441548E-3,-1.2736035E-2,-9.6581507E-1,1.7896469E0,-1.8307563E-2,1.5E1,-3.678329E-3,-2.8612113E-2,-2.027126E-2,1.2551333E-2,-1.1498445E-2,9.786502E-5,-4.956217E-4,2.5322167E-2,3.4556814E-2,-6.1864294E-3,2.0168098E-2,3.8464397E-2,2.5767107E-2,4.449489E-3],"split_indices":[4,4,2,2,4,4,2,2,2,0,4,2,0,2,2,4,4,0,4,4,0,0,0,0,0,2,4,0,0,0,0,0,0,0,0,0,0,0,0,0,0,0,0],"split_type":[0,0,0,0,0,0,0,0,0,0,0,0,0,0,0,0,0,0,0,0,0,0,0,0,0,0,0,0,0,0,0,0,0,0,0,0,0,0,0,0,0,0,0],"sum_hessian":[2.3980687E2,2.1055983E2,2.9247046E1,8.91716E1,1.2138823E2,4.873373E0,2.4373672E1,3.9170868E1,5.000073E1,2.1296887E0,1.19258545E2,2.5040622E0,2.369311E0,1.4977203E1,9.396469E0,2.135363E1,1.7817236E1,2.7878096E0,4.721292E1,1.172885E2,1.9700485E0,1.10081E0,1.403252E0,1.217309E0,1.152002E0,5.112813E0,9.86439E0,1.0300995E0,8.36637E0,1.6787207E1,4.5664234E0,1.5515586E0,1.6265678E1,3.4227455E1,1.2985466E1,1.1515008E2,2.1384127E0,2.289858E0,2.822955E0,5.0927444E0,4.771646E0,4.966412E0,3.399958E0],"tree_param":{"num_deleted":"0","num_feature":"5","num_nodes":"43","size_leaf_vector":"1"}},{"base_weights":[3.7893157E-3,-2.0030285E-1,1.2688366E-1,-1.14644304E-1,-4.0260327E-1,3.852036E-3,3.618355E-1,1.7159796E-1,-2.1634793E-1,-4.8660192E-1,3.0908513E-1,1.00814424E-1,-2.9478028E-1,1.2668389E-1,5.7314837E-1,3.5279146E-1,-4.0607458E-1,-4.2803338E-1,-5.963748E-2,-2.1467997E-1,-6.772525E-1,2.2932047E-2,-1.1100571E-2,3.6811043E-2,4.090012E-1,-4.966981E-1,3.8008368E-1,8.2338536E-1,-3.8184624E-2,6.770154E-1,1.3074924E-1,2.2212103E-2,-6.4598233E-4,-2.2956504E-2,-4.1421846E-4,-1.5491563E-2,-3.3727486E-3,4.6206047E-3,-9.913412E-3,-1.2139745E-2,2.1896116E-2,-2.5361305E-2,-3.842436E-3,3.2356074E-3,-2.0473681E-2,3.953032E-3,3.682893E-2,-1.9850906E-2,-4.1819573E-3,-1.4846736E-2,2.038167E-2,3.0040447E-2,3.29343E-3,-2.080462E-2,4.576644E-3,9.660792E-3,3.0361315E-2,1.7862838E-2,-4.6907356E-3],"categories":[],"categories_nodes":[],"categories_segments":[],"categories_sizes":[],"default_left":[0,0,0,0,0,0,0,0,0,0,0,0,0,0,0,0,0,0,0,0,0,0,0,0,0,0,0,0,0,0,0,0,0,0,0,0,0,0,0,0,0,0,0,0,0,0,0,0,0,0,0,0,0,0,0,0,0,0,0],"id":29,"left_children":[1,3,5,7,9,11,13,15,17,19,21,23,25,27,29,31,33,35,37,39,41,-1,-1,43,45,47,49,51,53,55,57,-1,-1,-1,-1,-1,-1,-1,-1,-1,-1,-1,-1,-1,-1,-1,-1,-1,-1,-1,-1,-1,-1,-1,-1,-1,-1,-1,-1],"loss_changes":[6.136768E0,1.5464907E0,4.4026146E0,1.9575262E0,1.7609859E0,2.9543853E0,2.5286946E0,2.0117686E0,1.6037776E0,1.1240005E0,1.3513682E0,1.5036142E0,3.597009E0,3.0249338E0,1.1654224E0,2.0652456E0,6.554063E-1,5.2001905E-1,1.7510693E0,2.3689995E0,1.1778488E0,0E0,0E0,3.387406E0,2.8206058E0,1.0682611E0,1.993029E0,5.2902603E-1,2.859348E0,2.2740335E0,9.5068336E-1,0E0,0E0,0E0,0E0,0E0,0E0,0E0,0E0,0E0,0E0,0E0,0E0,0E0,0E0,0E0,0E0,0E0,0E0,0E0,0E0,0E0,0E0,0E0,0E0,0E0,0E0,0E0,0E0],"parents":[2147483647,0,0,1,1,2,2,3,3,4,4,5,5,6,6,7,7,8,8,9,9,10,10,11,11,12,12,13,13,14,14,15,15,16,16,17,17,18,18,19,19,20,20,23,23,24,24,25,25,26,26,27,27,28,28,29,29,30,30],"right_children":[2,4,6,8,10,12,14,16,18,20,22,24,26,28,30,32,34,36,38,40,42,-1,-1,44,46,48,50,52,54,56,58,-1,-1,-1,-1,-1,-1,-1,-1,-1,-1,-1,-1,-1,-1,-1,-1,-1,-1,-1,-1,-1,-1,-1,-1,-1,-1,-1,-1],"split_conditions":[7.9080045E-1,1.27882E0,8.2949203E-1,6E0,3.323203E0,2.2836326E-1,9E0,7.3721075E-1,1.2E1,6.444586E-1,7.244302E-1,-1.6492721E-1,1.3520557E0,9.225702E-1,1.5831658E0,-3.8228002E-1,7.5017506E-1,7.1810055E-1,1.8E1,6.078591E-1,7.3721075E-1,2.2932047E-2,-1.1100571E-2,-2.7663726E-1,1.8E1,1.4E1,3.3518746E-1,2.5845387E0,1.0163984E0,1.0501806E0,1.5E1,2.2212103E-2,-6.4598233E-4,-2.2956504E-2,-4.1421846E-4,-1.5491563E-2,-3.3727486E-3,4.6206047E-3,-9.913412E-3,-1.2139745E-2,2.1896116E-2,-2.5361305E-2,-3.842436E-3,3.2356074E-3,-2.0473681E-2,3.953032E-3,3.682893E-2,-1.9850906E-2,-4.1819573E-3,-1.4846736E-2,2.038167E-2,3.0040447E-2,3.29343E-3,-2.080462E-2,4.576644E-3,9.660792E-3,3.0361315E-2,1.7862838E-2,-4.6907356E-3],"split_indices":[4,2,2,0,2,2,0,4,0,4,4,2,4,4,4,2,4,4,0,4,4,0,0,2,0,0,2,2,4,4,0,0,0,0,0,0,0,0,0,0,0,0,0,0,0,0,0,0,0,0,0,0,0,0,0,0,0,0,0],"split_type":[0,0,0,0,0,0,0,0,0,0,0,0,0,0,0,0,0,0,0,0,0,0,0,0,0,0,0,0,0,0,0,0,0,0,0,0,0,0,0,0,0,0,0,0,0,0,0,0,0,0,0,0,0,0,0,0,0,0,0],"sum_hessian":[2.4226123E2,9.090771E1,1.5135352E2,6.496624E1,2.5941467E1,1.0000349E2,5.1350033E1,1.6851341E1,4.8114902E1,2.3485777E1,2.4556916E0,7.599214E1,2.4011341E1,2.5061163E1,2.628887E1,1.3124106E1,3.7272358E0,1.9730906E1,2.8383995E1,1.0555981E1,1.2929796E1,1.394873E0,1.0608184E0,6.3851154E1,1.2140989E1,1.868487E1,5.3264704E0,4.031338E0,2.1029825E1,2.0860813E1,5.428057E0,5.9671545E0,7.1569514E0,1.4494402E0,2.2777956E0,1.4918448E1,4.812458E0,